digraph Tree {
node [shape=box, fontname="helvetica"] ;
edge [fontname="helvetica"] ;
0 [label="X[2] <= 2.5\ngini = 0.368\nsamples = 311346\nvalue = [242537, 47433, 13582, 4817, 1801, 691, 232, 113, 54\n27, 16, 8, 7, 4, 2, 2, 2, 1, 1, 1, 2, 1, 1\n1, 1, 2, 1, 1, 1, 1, 1, 1, 1]"] ;
1 [label="X[2] <= 1.5\ngini = 0.329\nsamples = 280644\nvalue = [226363, 39166, 9944, 3329, 1192, 393, 121, 59, 29\n13, 6, 4, 3, 3, 1, 1, 1, 1, 0, 1, 2, 1, 1\n1, 1, 2, 1, 0, 1, 1, 1, 1, 1]"] ;
0 -> 1 [labeldistance=2.5, labelangle=45, headlabel="True"] ;
2 [label="X[1] <= 35.0\ngini = 0.193\nsamples = 93972\nvalue = [84060, 7772, 1382, 506, 181, 39, 11, 8, 5, 1, 0\n2, 0, 2, 0, 0, 0, 0, 0, 0, 0, 0, 1, 0, 1\n0, 0, 0, 0, 0, 1, 0, 0]"] ;
1 -> 2 ;
3 [label="gini = 0.139\nsamples = 65026\nvalue = [60211, 3995, 561, 165, 56, 22, 6, 3, 2, 1, 0, 2\n0, 1, 0, 0, 0, 0, 0, 0, 0, 0, 1, 0, 0, 0\n0, 0, 0, 0, 0, 0, 0]"] ;
2 -> 3 ;
4 [label="gini = 0.303\nsamples = 28946\nvalue = [23849, 3777, 821, 341, 125, 17, 5, 5, 3, 0, 0, 0\n0, 1, 0, 0, 0, 0, 0, 0, 0, 0, 0, 0, 1, 0\n0, 0, 0, 0, 1, 0, 0]"] ;
2 -> 4 ;
5 [label="X[1] <= 35.0\ngini = 0.388\nsamples = 186672\nvalue = [142303, 31394, 8562, 2823, 1011, 354, 110, 51, 24\n12, 6, 2, 3, 1, 1, 1, 1, 1, 0, 1, 2, 1, 0\n1, 0, 2, 1, 0, 1, 1, 0, 1, 1]"] ;
1 -> 5 ;
6 [label="gini = 0.334\nsamples = 129805\nvalue = [104179, 18391, 4831, 1537, 544, 192, 68, 30, 16, 6\n4, 1, 1, 1, 0, 0, 0, 1, 0, 0, 0, 0, 0, 1\n0, 1, 0, 0, 0, 0, 0, 1, 0]"] ;
5 -> 6 ;
7 [label="gini = 0.493\nsamples = 56867\nvalue = [38124, 13003, 3731, 1286, 467, 162, 42, 21, 8, 6\n2, 1, 2, 0, 1, 1, 1, 0, 0, 1, 2, 1, 0, 0\n0, 1, 1, 0, 1, 1, 0, 0, 1]"] ;
5 -> 7 ;
8 [label="X[1] <= 35.0\ngini = 0.633\nsamples = 30702\nvalue = [16174, 8267, 3638, 1488, 609, 298, 111, 54, 25, 14\n10, 4, 4, 1, 1, 1, 1, 0, 1, 0, 0, 0, 0, 0\n0, 0, 0, 1, 0, 0, 0, 0, 0]"] ;
0 -> 8 [labeldistance=2.5, labelangle=-45, headlabel="False"] ;
9 [label="X[2] <= 3.5\ngini = 0.575\nsamples = 15542\nvalue = [9220, 3883, 1515, 587, 183, 94, 31, 13, 6, 5, 0\n2, 0, 1, 0, 0, 1, 0, 1, 0, 0, 0, 0, 0, 0\n0, 0, 0, 0, 0, 0, 0, 0]"] ;
8 -> 9 ;
10 [label="gini = 0.56\nsamples = 12732\nvalue = [7723, 3161, 1205, 423, 130, 60, 16, 5, 3, 5, 0\n1, 0, 0, 0, 0, 0, 0, 0, 0, 0, 0, 0, 0, 0\n0, 0, 0, 0, 0, 0, 0, 0]"] ;
9 -> 10 ;
11 [label="gini = 0.634\nsamples = 2810\nvalue = [1497, 722, 310, 164, 53, 34, 15, 8, 3, 0, 0, 1\n0, 1, 0, 0, 1, 0, 1, 0, 0, 0, 0, 0, 0, 0\n0, 0, 0, 0, 0, 0, 0]"] ;
9 -> 11 ;
12 [label="X[0] <= 2.5\ngini = 0.682\nsamples = 15160\nvalue = [6954, 4384, 2123, 901, 426, 204, 80, 41, 19, 9, 10\n2, 4, 0, 1, 1, 0, 0, 0, 0, 0, 0, 0, 0, 0\n0, 0, 1, 0, 0, 0, 0, 0]"] ;
8 -> 12 ;
13 [label="gini = 0.76\nsamples = 2514\nvalue = [823, 746, 454, 224, 142, 64, 28, 12, 8, 3, 7, 0\n1, 0, 1, 0, 0, 0, 0, 0, 0, 0, 0, 0, 0, 0\n0, 1, 0, 0, 0, 0, 0]"] ;
12 -> 13 ;
14 [label="gini = 0.661\nsamples = 12646\nvalue = [6131, 3638, 1669, 677, 284, 140, 52, 29, 11, 6, 3\n2, 3, 0, 0, 1, 0, 0, 0, 0, 0, 0, 0, 0, 0\n0, 0, 0, 0, 0, 0, 0, 0]"] ;
12 -> 14 ;
}
