digraph Tree {
node [shape=box, fontname="helvetica"] ;
edge [fontname="helvetica"] ;
0 [label="X[2] <= 2.5\nsquared_error = 0.682\nsamples = 311346\nvalue = 1.333"] ;
1 [label="X[2] <= 1.5\nsquared_error = 0.562\nsamples = 280644\nvalue = 1.278"] ;
0 -> 1 [labeldistance=2.5, labelangle=45, headlabel="True"] ;
2 [label="X[1] <= 35.0\nsquared_error = 0.273\nsamples = 93972\nvalue = 1.141"] ;
1 -> 2 ;
3 [label="X[20] <= 0.5\nsquared_error = 0.156\nsamples = 65026\nvalue = 1.094"] ;
2 -> 3 ;
4 [label="X[3] <= 1.5\nsquared_error = 0.197\nsamples = 19529\nvalue = 1.127"] ;
3 -> 4 ;
5 [label="X[0] <= 1.5\nsquared_error = 0.176\nsamples = 17194\nvalue = 1.116"] ;
4 -> 5 ;
6 [label="X[12] <= 0.5\nsquared_error = 0.597\nsamples = 309\nvalue = 1.353"] ;
5 -> 6 ;
7 [label="X[18] <= 0.5\nsquared_error = 0.562\nsamples = 303\nvalue = 1.343"] ;
6 -> 7 ;
8 [label="X[17] <= 0.5\nsquared_error = 0.076\nsamples = 12\nvalue = 1.083"] ;
7 -> 8 ;
9 [label="X[19] <= 0.5\nsquared_error = 0.139\nsamples = 6\nvalue = 1.167"] ;
8 -> 9 ;
10 [label="squared_error = 0.222\nsamples = 3\nvalue = 1.333"] ;
9 -> 10 ;
11 [label="squared_error = 0.0\nsamples = 3\nvalue = 1.0"] ;
9 -> 11 ;
12 [label="squared_error = 0.0\nsamples = 6\nvalue = 1.0"] ;
8 -> 12 ;
13 [label="X[1] <= 25.0\nsquared_error = 0.579\nsamples = 291\nvalue = 1.354"] ;
7 -> 13 ;
14 [label="X[14] <= 0.5\nsquared_error = 0.109\nsamples = 8\nvalue = 1.125"] ;
13 -> 14 ;
15 [label="squared_error = 0.0\nsamples = 1\nvalue = 1.0"] ;
14 -> 15 ;
16 [label="squared_error = 0.122\nsamples = 7\nvalue = 1.143"] ;
14 -> 16 ;
17 [label="X[4] <= 0.5\nsquared_error = 0.591\nsamples = 283\nvalue = 1.36"] ;
13 -> 17 ;
18 [label="X[5] <= 0.5\nsquared_error = 0.447\nsamples = 66\nvalue = 1.288"] ;
17 -> 18 ;
19 [label="X[14] <= 0.5\nsquared_error = 0.465\nsamples = 63\nvalue = 1.302"] ;
18 -> 19 ;
20 [label="squared_error = 0.0\nsamples = 2\nvalue = 1.0"] ;
19 -> 20 ;
21 [label="X[8] <= 0.5\nsquared_error = 0.477\nsamples = 61\nvalue = 1.311"] ;
19 -> 21 ;
22 [label="X[6] <= 0.5\nsquared_error = 0.277\nsamples = 21\nvalue = 1.238"] ;
21 -> 22 ;
23 [label="X[7] <= 0.5\nsquared_error = 0.277\nsamples = 16\nvalue = 1.188"] ;
22 -> 23 ;
24 [label="squared_error = 0.0\nsamples = 4\nvalue = 1.0"] ;
23 -> 24 ;
25 [label="squared_error = 0.354\nsamples = 12\nvalue = 1.25"] ;
23 -> 25 ;
26 [label="squared_error = 0.24\nsamples = 5\nvalue = 1.4"] ;
22 -> 26 ;
27 [label="squared_error = 0.577\nsamples = 40\nvalue = 1.35"] ;
21 -> 27 ;
28 [label="squared_error = 0.0\nsamples = 3\nvalue = 1.0"] ;
18 -> 28 ;
29 [label="X[14] <= 0.5\nsquared_error = 0.633\nsamples = 217\nvalue = 1.382"] ;
17 -> 29 ;
30 [label="X[13] <= 0.5\nsquared_error = 0.188\nsamples = 12\nvalue = 1.25"] ;
29 -> 30 ;
31 [label="squared_error = 0.198\nsamples = 11\nvalue = 1.273"] ;
30 -> 31 ;
32 [label="squared_error = 0.0\nsamples = 1\nvalue = 1.0"] ;
30 -> 32 ;
33 [label="squared_error = 0.657\nsamples = 205\nvalue = 1.39"] ;
29 -> 33 ;
34 [label="X[8] <= 0.5\nsquared_error = 2.139\nsamples = 6\nvalue = 1.833"] ;
6 -> 34 ;
35 [label="X[1] <= 25.0\nsquared_error = 2.4\nsamples = 5\nvalue = 2.0"] ;
34 -> 35 ;
36 [label="squared_error = 0.0\nsamples = 1\nvalue = 1.0"] ;
35 -> 36 ;
37 [label="squared_error = 2.688\nsamples = 4\nvalue = 2.25"] ;
35 -> 37 ;
38 [label="squared_error = 0.0\nsamples = 1\nvalue = 1.0"] ;
34 -> 38 ;
39 [label="X[13] <= 0.5\nsquared_error = 0.167\nsamples = 16885\nvalue = 1.111"] ;
5 -> 39 ;
40 [label="X[0] <= 2.5\nsquared_error = 0.163\nsamples = 16398\nvalue = 1.108"] ;
39 -> 40 ;
41 [label="X[15] <= 0.5\nsquared_error = 0.216\nsamples = 3832\nvalue = 1.133"] ;
40 -> 41 ;
42 [label="X[1] <= 25.0\nsquared_error = 0.216\nsamples = 3828\nvalue = 1.132"] ;
41 -> 42 ;
43 [label="X[16] <= 0.5\nsquared_error = 0.082\nsamples = 127\nvalue = 1.071"] ;
42 -> 43 ;
44 [label="X[8] <= 0.5\nsquared_error = 0.075\nsamples = 126\nvalue = 1.063"] ;
43 -> 44 ;
45 [label="X[14] <= 0.5\nsquared_error = 0.071\nsamples = 108\nvalue = 1.056"] ;
44 -> 45 ;
46 [label="X[12] <= 0.5\nsquared_error = 0.094\nsamples = 19\nvalue = 1.105"] ;
45 -> 46 ;
47 [label="squared_error = 0.25\nsamples = 2\nvalue = 1.5"] ;
46 -> 47 ;
48 [label="X[4] <= 0.5\nsquared_error = 0.055\nsamples = 17\nvalue = 1.059"] ;
46 -> 48 ;
49 [label="squared_error = 0.0\nsamples = 2\nvalue = 1.0"] ;
48 -> 49 ;
50 [label="squared_error = 0.062\nsamples = 15\nvalue = 1.067"] ;
48 -> 50 ;
51 [label="X[18] <= 0.5\nsquared_error = 0.065\nsamples = 89\nvalue = 1.045"] ;
45 -> 51 ;
52 [label="squared_error = 0.0\nsamples = 7\nvalue = 1.0"] ;
51 -> 52 ;
53 [label="X[4] <= 0.5\nsquared_error = 0.071\nsamples = 82\nvalue = 1.049"] ;
51 -> 53 ;
54 [label="squared_error = 0.0\nsamples = 5\nvalue = 1.0"] ;
53 -> 54 ;
55 [label="squared_error = 0.075\nsamples = 77\nvalue = 1.052"] ;
53 -> 55 ;
56 [label="X[14] <= 0.5\nsquared_error = 0.099\nsamples = 18\nvalue = 1.111"] ;
44 -> 56 ;
57 [label="squared_error = 0.0\nsamples = 4\nvalue = 1.0"] ;
56 -> 57 ;
58 [label="squared_error = 0.122\nsamples = 14\nvalue = 1.143"] ;
56 -> 58 ;
59 [label="squared_error = 0.0\nsamples = 1\nvalue = 2.0"] ;
43 -> 59 ;
60 [label="X[19] <= 0.5\nsquared_error = 0.22\nsamples = 3701\nvalue = 1.135"] ;
42 -> 60 ;
61 [label="X[11] <= 0.5\nsquared_error = 0.223\nsamples = 3622\nvalue = 1.136"] ;
60 -> 61 ;
62 [label="X[12] <= 0.5\nsquared_error = 0.225\nsamples = 3536\nvalue = 1.138"] ;
61 -> 62 ;
63 [label="X[16] <= 0.5\nsquared_error = 0.228\nsamples = 3391\nvalue = 1.139"] ;
62 -> 63 ;
64 [label="X[14] <= 0.5\nsquared_error = 0.229\nsamples = 3380\nvalue = 1.14"] ;
63 -> 64 ;
65 [label="X[8] <= 0.5\nsquared_error = 0.477\nsamples = 252\nvalue = 1.163"] ;
64 -> 65 ;
66 [label="X[18] <= 0.5\nsquared_error = 0.598\nsamples = 194\nvalue = 1.191"] ;
65 -> 66 ;
67 [label="squared_error = 0.0\nsamples = 11\nvalue = 1.0"] ;
66 -> 67 ;
68 [label="X[7] <= 0.5\nsquared_error = 0.631\nsamples = 183\nvalue = 1.202"] ;
66 -> 68 ;
69 [label="X[4] <= 0.5\nsquared_error = 0.61\nsamples = 176\nvalue = 1.193"] ;
68 -> 69 ;
70 [label="squared_error = 0.0\nsamples = 12\nvalue = 1.0"] ;
69 -> 70 ;
71 [label="squared_error = 0.652\nsamples = 164\nvalue = 1.207"] ;
69 -> 71 ;
72 [label="squared_error = 1.102\nsamples = 7\nvalue = 1.429"] ;
68 -> 72 ;
73 [label="squared_error = 0.064\nsamples = 58\nvalue = 1.069"] ;
65 -> 73 ;
74 [label="X[9] <= 0.5\nsquared_error = 0.209\nsamples = 3128\nvalue = 1.138"] ;
64 -> 74 ;
75 [label="X[6] <= 0.5\nsquared_error = 0.209\nsamples = 3125\nvalue = 1.138"] ;
74 -> 75 ;
76 [label="X[8] <= 0.5\nsquared_error = 0.21\nsamples = 3056\nvalue = 1.139"] ;
75 -> 76 ;
77 [label="X[4] <= 0.5\nsquared_error = 0.201\nsamples = 2496\nvalue = 1.138"] ;
76 -> 77 ;
78 [label="X[7] <= 0.5\nsquared_error = 0.134\nsamples = 179\nvalue = 1.128"] ;
77 -> 78 ;
79 [label="X[17] <= 0.5\nsquared_error = 0.125\nsamples = 80\nvalue = 1.112"] ;
78 -> 79 ;
80 [label="X[10] <= 0.5\nsquared_error = 0.12\nsamples = 76\nvalue = 1.105"] ;
79 -> 80 ;
81 [label="X[5] <= 0.5\nsquared_error = 0.072\nsamples = 51\nvalue = 1.078"] ;
80 -> 81 ;
82 [label="squared_error = 0.066\nsamples = 42\nvalue = 1.071"] ;
81 -> 82 ;
83 [label="X[18] <= 0.5\nsquared_error = 0.099\nsamples = 9\nvalue = 1.111"] ;
81 -> 83 ;
84 [label="squared_error = 0.0\nsamples = 1\nvalue = 1.0"] ;
83 -> 84 ;
85 [label="squared_error = 0.109\nsamples = 8\nvalue = 1.125"] ;
83 -> 85 ;
86 [label="squared_error = 0.214\nsamples = 25\nvalue = 1.16"] ;
80 -> 86 ;
87 [label="X[10] <= 0.5\nsquared_error = 0.188\nsamples = 4\nvalue = 1.25"] ;
79 -> 87 ;
88 [label="squared_error = 0.222\nsamples = 3\nvalue = 1.333"] ;
87 -> 88 ;
89 [label="squared_error = 0.0\nsamples = 1\nvalue = 1.0"] ;
87 -> 89 ;
90 [label="X[18] <= 0.5\nsquared_error = 0.142\nsamples = 99\nvalue = 1.141"] ;
78 -> 90 ;
91 [label="squared_error = 0.0\nsamples = 4\nvalue = 1.0"] ;
90 -> 91 ;
92 [label="squared_error = 0.147\nsamples = 95\nvalue = 1.147"] ;
90 -> 92 ;
93 [label="X[18] <= 0.5\nsquared_error = 0.207\nsamples = 2317\nvalue = 1.139"] ;
77 -> 93 ;
94 [label="X[17] <= 0.5\nsquared_error = 0.178\nsamples = 146\nvalue = 1.144"] ;
93 -> 94 ;
95 [label="squared_error = 0.24\nsamples = 22\nvalue = 1.182"] ;
94 -> 95 ;
96 [label="squared_error = 0.167\nsamples = 124\nvalue = 1.137"] ;
94 -> 96 ;
97 [label="squared_error = 0.208\nsamples = 2171\nvalue = 1.138"] ;
93 -> 97 ;
98 [label="X[18] <= 0.5\nsquared_error = 0.247\nsamples = 560\nvalue = 1.143"] ;
76 -> 98 ;
99 [label="X[17] <= 0.5\nsquared_error = 0.059\nsamples = 16\nvalue = 1.062"] ;
98 -> 99 ;
100 [label="squared_error = 0.0\nsamples = 5\nvalue = 1.0"] ;
99 -> 100 ;
101 [label="squared_error = 0.083\nsamples = 11\nvalue = 1.091"] ;
99 -> 101 ;
102 [label="squared_error = 0.253\nsamples = 544\nvalue = 1.145"] ;
98 -> 102 ;
103 [label="X[18] <= 0.5\nsquared_error = 0.16\nsamples = 69\nvalue = 1.116"] ;
75 -> 103 ;
104 [label="squared_error = 0.0\nsamples = 7\nvalue = 1.0"] ;
103 -> 104 ;
105 [label="squared_error = 0.177\nsamples = 62\nvalue = 1.129"] ;
103 -> 105 ;
106 [label="squared_error = 0.0\nsamples = 3\nvalue = 1.0"] ;
74 -> 106 ;
107 [label="squared_error = 0.0\nsamples = 11\nvalue = 1.0"] ;
63 -> 107 ;
108 [label="X[4] <= 0.5\nsquared_error = 0.142\nsamples = 145\nvalue = 1.097"] ;
62 -> 108 ;
109 [label="X[8] <= 0.5\nsquared_error = 0.029\nsamples = 33\nvalue = 1.03"] ;
108 -> 109 ;
110 [label="squared_error = 0.0\nsamples = 10\nvalue = 1.0"] ;
109 -> 110 ;
111 [label="X[18] <= 0.5\nsquared_error = 0.042\nsamples = 23\nvalue = 1.043"] ;
109 -> 111 ;
112 [label="squared_error = 0.0\nsamples = 1\nvalue = 1.0"] ;
111 -> 112 ;
113 [label="squared_error = 0.043\nsamples = 22\nvalue = 1.045"] ;
111 -> 113 ;
114 [label="X[18] <= 0.5\nsquared_error = 0.174\nsamples = 112\nvalue = 1.116"] ;
108 -> 114 ;
115 [label="squared_error = 0.0\nsamples = 4\nvalue = 1.0"] ;
114 -> 115 ;
116 [label="squared_error = 0.18\nsamples = 108\nvalue = 1.12"] ;
114 -> 116 ;
117 [label="X[17] <= 0.5\nsquared_error = 0.158\nsamples = 86\nvalue = 1.07"] ;
61 -> 117 ;
118 [label="X[14] <= 0.5\nsquared_error = 0.062\nsamples = 64\nvalue = 1.031"] ;
117 -> 118 ;
119 [label="squared_error = 0.0\nsamples = 16\nvalue = 1.0"] ;
118 -> 119 ;
120 [label="X[18] <= 0.5\nsquared_error = 0.082\nsamples = 48\nvalue = 1.042"] ;
118 -> 120 ;
121 [label="squared_error = 0.0\nsamples = 2\nvalue = 1.0"] ;
120 -> 121 ;
122 [label="squared_error = 0.085\nsamples = 46\nvalue = 1.043"] ;
120 -> 122 ;
123 [label="X[12] <= 0.5\nsquared_error = 0.421\nsamples = 22\nvalue = 1.182"] ;
117 -> 123 ;
124 [label="squared_error = 0.408\nsamples = 21\nvalue = 1.143"] ;
123 -> 124 ;
125 [label="squared_error = 0.0\nsamples = 1\nvalue = 2.0"] ;
123 -> 125 ;
126 [label="X[4] <= 0.5\nsquared_error = 0.085\nsamples = 79\nvalue = 1.063"] ;
60 -> 126 ;
127 [label="squared_error = 0.0\nsamples = 24\nvalue = 1.0"] ;
126 -> 127 ;
128 [label="X[12] <= 0.5\nsquared_error = 0.119\nsamples = 55\nvalue = 1.091"] ;
126 -> 128 ;
129 [label="X[14] <= 0.5\nsquared_error = 0.123\nsamples = 53\nvalue = 1.094"] ;
128 -> 129 ;
130 [label="X[16] <= 0.5\nsquared_error = 0.139\nsamples = 6\nvalue = 1.167"] ;
129 -> 130 ;
131 [label="squared_error = 0.16\nsamples = 5\nvalue = 1.2"] ;
130 -> 131 ;
132 [label="squared_error = 0.0\nsamples = 1\nvalue = 1.0"] ;
130 -> 132 ;
133 [label="squared_error = 0.12\nsamples = 47\nvalue = 1.085"] ;
129 -> 133 ;
134 [label="squared_error = 0.0\nsamples = 2\nvalue = 1.0"] ;
128 -> 134 ;
135 [label="X[4] <= 0.5\nsquared_error = 0.25\nsamples = 4\nvalue = 1.5"] ;
41 -> 135 ;
136 [label="squared_error = 0.0\nsamples = 1\nvalue = 1.0"] ;
135 -> 136 ;
137 [label="X[17] <= 0.5\nsquared_error = 0.222\nsamples = 3\nvalue = 1.667"] ;
135 -> 137 ;
138 [label="squared_error = 0.0\nsamples = 2\nvalue = 2.0"] ;
137 -> 138 ;
139 [label="squared_error = 0.0\nsamples = 1\nvalue = 1.0"] ;
137 -> 139 ;
140 [label="X[10] <= 0.5\nsquared_error = 0.147\nsamples = 12566\nvalue = 1.101"] ;
40 -> 140 ;
141 [label="X[6] <= 0.5\nsquared_error = 0.144\nsamples = 12466\nvalue = 1.1"] ;
140 -> 141 ;
142 [label="X[11] <= 0.5\nsquared_error = 0.14\nsamples = 12183\nvalue = 1.098"] ;
141 -> 142 ;
143 [label="X[12] <= 0.5\nsquared_error = 0.142\nsamples = 11801\nvalue = 1.1"] ;
142 -> 143 ;
144 [label="X[19] <= 0.5\nsquared_error = 0.144\nsamples = 11170\nvalue = 1.102"] ;
143 -> 144 ;
145 [label="X[14] <= 0.5\nsquared_error = 0.146\nsamples = 10963\nvalue = 1.103"] ;
144 -> 145 ;
146 [label="X[18] <= 0.5\nsquared_error = 0.153\nsamples = 866\nvalue = 1.119"] ;
145 -> 146 ;
147 [label="X[15] <= 0.5\nsquared_error = 0.038\nsamples = 50\nvalue = 1.04"] ;
146 -> 147 ;
148 [label="X[17] <= 0.5\nsquared_error = 0.022\nsamples = 45\nvalue = 1.022"] ;
147 -> 148 ;
149 [label="squared_error = 0.0\nsamples = 14\nvalue = 1.0"] ;
148 -> 149 ;
150 [label="X[4] <= 0.5\nsquared_error = 0.031\nsamples = 31\nvalue = 1.032"] ;
148 -> 150 ;
151 [label="squared_error = 0.0\nsamples = 7\nvalue = 1.0"] ;
150 -> 151 ;
152 [label="X[16] <= 0.5\nsquared_error = 0.04\nsamples = 24\nvalue = 1.042"] ;
150 -> 152 ;
153 [label="X[1] <= 25.0\nsquared_error = 0.045\nsamples = 21\nvalue = 1.048"] ;
152 -> 153 ;
154 [label="squared_error = 0.0\nsamples = 1\nvalue = 1.0"] ;
153 -> 154 ;
155 [label="squared_error = 0.047\nsamples = 20\nvalue = 1.05"] ;
153 -> 155 ;
156 [label="squared_error = 0.0\nsamples = 3\nvalue = 1.0"] ;
152 -> 156 ;
157 [label="X[8] <= 0.5\nsquared_error = 0.16\nsamples = 5\nvalue = 1.2"] ;
147 -> 157 ;
158 [label="squared_error = 0.222\nsamples = 3\nvalue = 1.333"] ;
157 -> 158 ;
159 [label="squared_error = 0.0\nsamples = 2\nvalue = 1.0"] ;
157 -> 159 ;
160 [label="X[1] <= 25.0\nsquared_error = 0.16\nsamples = 816\nvalue = 1.124"] ;
146 -> 160 ;
161 [label="squared_error = 0.0\nsamples = 12\nvalue = 1.0"] ;
160 -> 161 ;
162 [label="X[16] <= 0.5\nsquared_error = 0.162\nsamples = 804\nvalue = 1.126"] ;
160 -> 162 ;
163 [label="X[7] <= 0.5\nsquared_error = 0.165\nsamples = 780\nvalue = 1.127"] ;
162 -> 163 ;
164 [label="X[5] <= 0.5\nsquared_error = 0.166\nsamples = 767\nvalue = 1.128"] ;
163 -> 164 ;
165 [label="X[15] <= 0.5\nsquared_error = 0.167\nsamples = 765\nvalue = 1.128"] ;
164 -> 165 ;
166 [label="X[4] <= 0.5\nsquared_error = 0.167\nsamples = 728\nvalue = 1.129"] ;
165 -> 166 ;
167 [label="X[8] <= 0.5\nsquared_error = 0.2\nsamples = 149\nvalue = 1.121"] ;
166 -> 167 ;
168 [label="squared_error = 0.0\nsamples = 9\nvalue = 1.0"] ;
167 -> 168 ;
169 [label="squared_error = 0.212\nsamples = 140\nvalue = 1.129"] ;
167 -> 169 ;
170 [label="squared_error = 0.159\nsamples = 579\nvalue = 1.131"] ;
166 -> 170 ;
171 [label="X[4] <= 0.5\nsquared_error = 0.15\nsamples = 37\nvalue = 1.108"] ;
165 -> 171 ;
172 [label="squared_error = 0.36\nsamples = 10\nvalue = 1.2"] ;
171 -> 172 ;
173 [label="squared_error = 0.069\nsamples = 27\nvalue = 1.074"] ;
171 -> 173 ;
174 [label="squared_error = 0.0\nsamples = 2\nvalue = 1.0"] ;
164 -> 174 ;
175 [label="X[15] <= 0.5\nsquared_error = 0.071\nsamples = 13\nvalue = 1.077"] ;
163 -> 175 ;
176 [label="squared_error = 0.076\nsamples = 12\nvalue = 1.083"] ;
175 -> 176 ;
177 [label="squared_error = 0.0\nsamples = 1\nvalue = 1.0"] ;
175 -> 177 ;
178 [label="X[7] <= 0.5\nsquared_error = 0.076\nsamples = 24\nvalue = 1.083"] ;
162 -> 178 ;
179 [label="X[8] <= 0.5\nsquared_error = 0.043\nsamples = 22\nvalue = 1.045"] ;
178 -> 179 ;
180 [label="squared_error = 0.047\nsamples = 20\nvalue = 1.05"] ;
179 -> 180 ;
181 [label="squared_error = 0.0\nsamples = 2\nvalue = 1.0"] ;
179 -> 181 ;
182 [label="squared_error = 0.25\nsamples = 2\nvalue = 1.5"] ;
178 -> 182 ;
183 [label="X[4] <= 0.5\nsquared_error = 0.145\nsamples = 10097\nvalue = 1.101"] ;
145 -> 183 ;
184 [label="X[8] <= 0.5\nsquared_error = 0.141\nsamples = 2463\nvalue = 1.094"] ;
183 -> 184 ;
185 [label="X[18] <= 0.5\nsquared_error = 0.122\nsamples = 493\nvalue = 1.079"] ;
184 -> 185 ;
186 [label="squared_error = 0.0\nsamples = 27\nvalue = 1.0"] ;
185 -> 186 ;
187 [label="X[1] <= 25.0\nsquared_error = 0.128\nsamples = 466\nvalue = 1.084"] ;
185 -> 187 ;
188 [label="squared_error = 0.0\nsamples = 19\nvalue = 1.0"] ;
187 -> 188 ;
189 [label="X[5] <= 0.5\nsquared_error = 0.133\nsamples = 447\nvalue = 1.087"] ;
187 -> 189 ;
190 [label="X[9] <= 0.5\nsquared_error = 0.135\nsamples = 410\nvalue = 1.083"] ;
189 -> 190 ;
191 [label="X[7] <= 0.5\nsquared_error = 0.136\nsamples = 393\nvalue = 1.081"] ;
190 -> 191 ;
192 [label="squared_error = 0.099\nsamples = 107\nvalue = 1.065"] ;
191 -> 192 ;
193 [label="squared_error = 0.15\nsamples = 286\nvalue = 1.087"] ;
191 -> 193 ;
194 [label="squared_error = 0.104\nsamples = 17\nvalue = 1.118"] ;
190 -> 194 ;
195 [label="squared_error = 0.117\nsamples = 37\nvalue = 1.135"] ;
189 -> 195 ;
196 [label="X[1] <= 25.0\nsquared_error = 0.145\nsamples = 1970\nvalue = 1.098"] ;
184 -> 196 ;
197 [label="X[18] <= 0.5\nsquared_error = 0.127\nsamples = 68\nvalue = 1.074"] ;
196 -> 197 ;
198 [label="squared_error = 0.0\nsamples = 8\nvalue = 1.0"] ;
197 -> 198 ;
199 [label="squared_error = 0.143\nsamples = 60\nvalue = 1.083"] ;
197 -> 199 ;
200 [label="X[17] <= 0.5\nsquared_error = 0.146\nsamples = 1902\nvalue = 1.099"] ;
196 -> 200 ;
201 [label="X[18] <= 0.5\nsquared_error = 0.147\nsamples = 1834\nvalue = 1.099"] ;
200 -> 201 ;
202 [label="squared_error = 0.266\nsamples = 39\nvalue = 1.128"] ;
201 -> 202 ;
203 [label="squared_error = 0.145\nsamples = 1795\nvalue = 1.099"] ;
201 -> 203 ;
204 [label="squared_error = 0.11\nsamples = 68\nvalue = 1.088"] ;
200 -> 204 ;
205 [label="X[1] <= 25.0\nsquared_error = 0.147\nsamples = 7634\nvalue = 1.103"] ;
183 -> 205 ;
206 [label="X[18] <= 0.5\nsquared_error = 0.097\nsamples = 265\nvalue = 1.091"] ;
205 -> 206 ;
207 [label="squared_error = 0.0\nsamples = 15\nvalue = 1.0"] ;
206 -> 207 ;
208 [label="squared_error = 0.103\nsamples = 250\nvalue = 1.096"] ;
206 -> 208 ;
209 [label="X[17] <= 0.5\nsquared_error = 0.149\nsamples = 7369\nvalue = 1.104"] ;
205 -> 209 ;
210 [label="X[18] <= 0.5\nsquared_error = 0.151\nsamples = 6902\nvalue = 1.103"] ;
209 -> 210 ;
211 [label="squared_error = 0.097\nsamples = 115\nvalue = 1.087"] ;
210 -> 211 ;
212 [label="squared_error = 0.152\nsamples = 6787\nvalue = 1.104"] ;
210 -> 212 ;
213 [label="squared_error = 0.119\nsamples = 467\nvalue = 1.109"] ;
209 -> 213 ;
214 [label="X[7] <= 0.5\nsquared_error = 0.06\nsamples = 207\nvalue = 1.053"] ;
144 -> 214 ;
215 [label="X[1] <= 25.0\nsquared_error = 0.05\nsamples = 195\nvalue = 1.041"] ;
214 -> 215 ;
216 [label="X[8] <= 0.5\nsquared_error = 0.188\nsamples = 8\nvalue = 1.25"] ;
215 -> 216 ;
217 [label="squared_error = 0.204\nsamples = 7\nvalue = 1.286"] ;
216 -> 217 ;
218 [label="squared_error = 0.0\nsamples = 1\nvalue = 1.0"] ;
216 -> 218 ;
219 [label="X[8] <= 0.5\nsquared_error = 0.042\nsamples = 187\nvalue = 1.032"] ;
215 -> 219 ;
220 [label="X[14] <= 0.5\nsquared_error = 0.04\nsamples = 148\nvalue = 1.027"] ;
219 -> 220 ;
221 [label="squared_error = 0.0\nsamples = 8\nvalue = 1.0"] ;
220 -> 221 ;
222 [label="X[4] <= 0.5\nsquared_error = 0.042\nsamples = 140\nvalue = 1.029"] ;
220 -> 222 ;
223 [label="squared_error = 0.0\nsamples = 6\nvalue = 1.0"] ;
222 -> 223 ;
224 [label="squared_error = 0.044\nsamples = 134\nvalue = 1.03"] ;
222 -> 224 ;
225 [label="X[14] <= 0.5\nsquared_error = 0.049\nsamples = 39\nvalue = 1.051"] ;
219 -> 225 ;
226 [label="squared_error = 0.0\nsamples = 3\nvalue = 1.0"] ;
225 -> 226 ;
227 [label="squared_error = 0.052\nsamples = 36\nvalue = 1.056"] ;
225 -> 227 ;
228 [label="X[14] <= 0.5\nsquared_error = 0.188\nsamples = 12\nvalue = 1.25"] ;
214 -> 228 ;
229 [label="X[16] <= 0.5\nsquared_error = 0.25\nsamples = 2\nvalue = 1.5"] ;
228 -> 229 ;
230 [label="squared_error = 0.0\nsamples = 1\nvalue = 2.0"] ;
229 -> 230 ;
231 [label="squared_error = 0.0\nsamples = 1\nvalue = 1.0"] ;
229 -> 231 ;
232 [label="squared_error = 0.16\nsamples = 10\nvalue = 1.2"] ;
228 -> 232 ;
233 [label="X[17] <= 0.5\nsquared_error = 0.097\nsamples = 631\nvalue = 1.067"] ;
143 -> 233 ;
234 [label="X[4] <= 0.5\nsquared_error = 0.101\nsamples = 605\nvalue = 1.069"] ;
233 -> 234 ;
235 [label="X[8] <= 0.5\nsquared_error = 0.041\nsamples = 139\nvalue = 1.043"] ;
234 -> 235 ;
236 [label="squared_error = 0.0\nsamples = 25\nvalue = 1.0"] ;
235 -> 236 ;
237 [label="X[1] <= 25.0\nsquared_error = 0.05\nsamples = 114\nvalue = 1.053"] ;
235 -> 237 ;
238 [label="squared_error = 0.0\nsamples = 7\nvalue = 1.0"] ;
237 -> 238 ;
239 [label="squared_error = 0.053\nsamples = 107\nvalue = 1.056"] ;
237 -> 239 ;
240 [label="X[1] <= 25.0\nsquared_error = 0.118\nsamples = 466\nvalue = 1.077"] ;
234 -> 240 ;
241 [label="X[19] <= 0.5\nsquared_error = 0.04\nsamples = 48\nvalue = 1.042"] ;
240 -> 241 ;
242 [label="squared_error = 0.041\nsamples = 47\nvalue = 1.043"] ;
241 -> 242 ;
243 [label="squared_error = 0.0\nsamples = 1\nvalue = 1.0"] ;
241 -> 243 ;
244 [label="X[18] <= 0.5\nsquared_error = 0.127\nsamples = 418\nvalue = 1.081"] ;
240 -> 244 ;
245 [label="X[19] <= 0.5\nsquared_error = 0.062\nsamples = 15\nvalue = 1.067"] ;
244 -> 245 ;
246 [label="squared_error = 0.0\nsamples = 2\nvalue = 1.0"] ;
245 -> 246 ;
247 [label="squared_error = 0.071\nsamples = 13\nvalue = 1.077"] ;
245 -> 247 ;
248 [label="squared_error = 0.13\nsamples = 403\nvalue = 1.082"] ;
244 -> 248 ;
249 [label="squared_error = 0.0\nsamples = 26\nvalue = 1.0"] ;
233 -> 249 ;
250 [label="X[14] <= 0.5\nsquared_error = 0.063\nsamples = 382\nvalue = 1.05"] ;
142 -> 250 ;
251 [label="squared_error = 0.0\nsamples = 53\nvalue = 1.0"] ;
250 -> 251 ;
252 [label="X[17] <= 0.5\nsquared_error = 0.073\nsamples = 329\nvalue = 1.058"] ;
250 -> 252 ;
253 [label="X[18] <= 0.5\nsquared_error = 0.049\nsamples = 217\nvalue = 1.041"] ;
252 -> 253 ;
254 [label="squared_error = 0.0\nsamples = 9\nvalue = 1.0"] ;
253 -> 254 ;
255 [label="X[1] <= 25.0\nsquared_error = 0.051\nsamples = 208\nvalue = 1.043"] ;
253 -> 255 ;
256 [label="squared_error = 0.0\nsamples = 6\nvalue = 1.0"] ;
255 -> 256 ;
257 [label="squared_error = 0.052\nsamples = 202\nvalue = 1.045"] ;
255 -> 257 ;
258 [label="X[1] <= 25.0\nsquared_error = 0.117\nsamples = 112\nvalue = 1.089"] ;
252 -> 258 ;
259 [label="squared_error = 0.0\nsamples = 3\nvalue = 1.0"] ;
258 -> 259 ;
260 [label="squared_error = 0.12\nsamples = 109\nvalue = 1.092"] ;
258 -> 260 ;
261 [label="X[15] <= 0.5\nsquared_error = 0.327\nsamples = 283\nvalue = 1.173"] ;
141 -> 261 ;
262 [label="X[1] <= 25.0\nsquared_error = 0.326\nsamples = 282\nvalue = 1.17"] ;
261 -> 262 ;
263 [label="squared_error = 0.0\nsamples = 13\nvalue = 1.0"] ;
262 -> 263 ;
264 [label="X[12] <= 0.5\nsquared_error = 0.34\nsamples = 269\nvalue = 1.178"] ;
262 -> 264 ;
265 [label="X[18] <= 0.5\nsquared_error = 0.351\nsamples = 260\nvalue = 1.185"] ;
264 -> 265 ;
266 [label="X[17] <= 0.5\nsquared_error = 0.09\nsamples = 20\nvalue = 1.1"] ;
265 -> 266 ;
267 [label="X[19] <= 0.5\nsquared_error = 0.071\nsamples = 13\nvalue = 1.077"] ;
266 -> 267 ;
268 [label="squared_error = 0.0\nsamples = 5\nvalue = 1.0"] ;
267 -> 268 ;
269 [label="X[16] <= 0.5\nsquared_error = 0.109\nsamples = 8\nvalue = 1.125"] ;
267 -> 269 ;
270 [label="squared_error = 0.122\nsamples = 7\nvalue = 1.143"] ;
269 -> 270 ;
271 [label="squared_error = 0.0\nsamples = 1\nvalue = 1.0"] ;
269 -> 271 ;
272 [label="squared_error = 0.122\nsamples = 7\nvalue = 1.143"] ;
266 -> 272 ;
273 [label="X[16] <= 0.5\nsquared_error = 0.372\nsamples = 240\nvalue = 1.192"] ;
265 -> 273 ;
274 [label="X[14] <= 0.5\nsquared_error = 0.373\nsamples = 237\nvalue = 1.19"] ;
273 -> 274 ;
275 [label="squared_error = 0.263\nsamples = 17\nvalue = 1.176"] ;
274 -> 275 ;
276 [label="squared_error = 0.382\nsamples = 220\nvalue = 1.191"] ;
274 -> 276 ;
277 [label="squared_error = 0.222\nsamples = 3\nvalue = 1.333"] ;
273 -> 277 ;
278 [label="squared_error = 0.0\nsamples = 9\nvalue = 1.0"] ;
264 -> 278 ;
279 [label="squared_error = 0.0\nsamples = 1\nvalue = 2.0"] ;
261 -> 279 ;
280 [label="X[1] <= 25.0\nsquared_error = 0.522\nsamples = 100\nvalue = 1.24"] ;
140 -> 280 ;
281 [label="squared_error = 0.0\nsamples = 1\nvalue = 2.0"] ;
280 -> 281 ;
282 [label="X[17] <= 0.5\nsquared_error = 0.522\nsamples = 99\nvalue = 1.232"] ;
280 -> 282 ;
283 [label="X[18] <= 0.5\nsquared_error = 0.547\nsamples = 94\nvalue = 1.245"] ;
282 -> 283 ;
284 [label="X[19] <= 0.5\nsquared_error = 0.188\nsamples = 4\nvalue = 1.75"] ;
283 -> 284 ;
285 [label="squared_error = 0.0\nsamples = 2\nvalue = 2.0"] ;
284 -> 285 ;
286 [label="squared_error = 0.25\nsamples = 2\nvalue = 1.5"] ;
284 -> 286 ;
287 [label="X[12] <= 0.5\nsquared_error = 0.551\nsamples = 90\nvalue = 1.222"] ;
283 -> 287 ;
288 [label="X[15] <= 0.5\nsquared_error = 0.568\nsamples = 87\nvalue = 1.23"] ;
287 -> 288 ;
289 [label="X[14] <= 0.5\nsquared_error = 0.574\nsamples = 86\nvalue = 1.233"] ;
288 -> 289 ;
290 [label="squared_error = 0.16\nsamples = 10\nvalue = 1.2"] ;
289 -> 290 ;
291 [label="squared_error = 0.628\nsamples = 76\nvalue = 1.237"] ;
289 -> 291 ;
292 [label="squared_error = 0.0\nsamples = 1\nvalue = 1.0"] ;
288 -> 292 ;
293 [label="squared_error = 0.0\nsamples = 3\nvalue = 1.0"] ;
287 -> 293 ;
294 [label="squared_error = 0.0\nsamples = 5\nvalue = 1.0"] ;
282 -> 294 ;
295 [label="X[0] <= 2.5\nsquared_error = 0.282\nsamples = 487\nvalue = 1.205"] ;
39 -> 295 ;
296 [label="X[19] <= 0.5\nsquared_error = 0.572\nsamples = 96\nvalue = 1.396"] ;
295 -> 296 ;
297 [label="X[7] <= 0.5\nsquared_error = 0.551\nsamples = 95\nvalue = 1.379"] ;
296 -> 297 ;
298 [label="X[8] <= 0.5\nsquared_error = 0.524\nsamples = 88\nvalue = 1.352"] ;
297 -> 298 ;
299 [label="X[11] <= 0.5\nsquared_error = 0.394\nsamples = 67\nvalue = 1.313"] ;
298 -> 299 ;
300 [label="X[18] <= 0.5\nsquared_error = 0.403\nsamples = 65\nvalue = 1.323"] ;
299 -> 300 ;
301 [label="squared_error = 0.0\nsamples = 1\nvalue = 1.0"] ;
300 -> 301 ;
302 [label="X[10] <= 0.5\nsquared_error = 0.408\nsamples = 64\nvalue = 1.328"] ;
300 -> 302 ;
303 [label="X[1] <= 25.0\nsquared_error = 0.413\nsamples = 63\nvalue = 1.333"] ;
302 -> 303 ;
304 [label="squared_error = 0.0\nsamples = 1\nvalue = 1.0"] ;
303 -> 304 ;
305 [label="X[6] <= 0.5\nsquared_error = 0.418\nsamples = 62\nvalue = 1.339"] ;
303 -> 305 ;
306 [label="squared_error = 0.422\nsamples = 60\nvalue = 1.333"] ;
305 -> 306 ;
307 [label="squared_error = 0.25\nsamples = 2\nvalue = 1.5"] ;
305 -> 307 ;
308 [label="squared_error = 0.0\nsamples = 1\nvalue = 1.0"] ;
302 -> 308 ;
309 [label="squared_error = 0.0\nsamples = 2\nvalue = 1.0"] ;
299 -> 309 ;
310 [label="X[1] <= 25.0\nsquared_error = 0.916\nsamples = 21\nvalue = 1.476"] ;
298 -> 310 ;
311 [label="squared_error = 0.0\nsamples = 1\nvalue = 1.0"] ;
310 -> 311 ;
312 [label="squared_error = 0.95\nsamples = 20\nvalue = 1.5"] ;
310 -> 312 ;
313 [label="X[18] <= 0.5\nsquared_error = 0.776\nsamples = 7\nvalue = 1.714"] ;
297 -> 313 ;
314 [label="squared_error = 0.0\nsamples = 1\nvalue = 1.0"] ;
313 -> 314 ;
315 [label="squared_error = 0.806\nsamples = 6\nvalue = 1.833"] ;
313 -> 315 ;
316 [label="squared_error = 0.0\nsamples = 1\nvalue = 3.0"] ;
296 -> 316 ;
317 [label="X[8] <= 0.5\nsquared_error = 0.2\nsamples = 391\nvalue = 1.159"] ;
295 -> 317 ;
318 [label="X[18] <= 0.5\nsquared_error = 0.168\nsamples = 306\nvalue = 1.134"] ;
317 -> 318 ;
319 [label="X[17] <= 0.5\nsquared_error = 0.055\nsamples = 17\nvalue = 1.059"] ;
318 -> 319 ;
320 [label="squared_error = 0.0\nsamples = 5\nvalue = 1.0"] ;
319 -> 320 ;
321 [label="X[4] <= 0.5\nsquared_error = 0.076\nsamples = 12\nvalue = 1.083"] ;
319 -> 321 ;
322 [label="squared_error = 0.0\nsamples = 4\nvalue = 1.0"] ;
321 -> 322 ;
323 [label="squared_error = 0.109\nsamples = 8\nvalue = 1.125"] ;
321 -> 323 ;
324 [label="X[11] <= 0.5\nsquared_error = 0.175\nsamples = 289\nvalue = 1.138"] ;
318 -> 324 ;
325 [label="X[4] <= 0.5\nsquared_error = 0.173\nsamples = 287\nvalue = 1.136"] ;
324 -> 325 ;
326 [label="X[6] <= 0.5\nsquared_error = 0.078\nsamples = 35\nvalue = 1.086"] ;
325 -> 326 ;
327 [label="X[7] <= 0.5\nsquared_error = 0.04\nsamples = 24\nvalue = 1.042"] ;
326 -> 327 ;
328 [label="squared_error = 0.0\nsamples = 12\nvalue = 1.0"] ;
327 -> 328 ;
329 [label="squared_error = 0.076\nsamples = 12\nvalue = 1.083"] ;
327 -> 329 ;
330 [label="squared_error = 0.149\nsamples = 11\nvalue = 1.182"] ;
326 -> 330 ;
331 [label="X[1] <= 25.0\nsquared_error = 0.186\nsamples = 252\nvalue = 1.143"] ;
325 -> 331 ;
332 [label="squared_error = 0.0\nsamples = 2\nvalue = 1.0"] ;
331 -> 332 ;
333 [label="squared_error = 0.187\nsamples = 250\nvalue = 1.144"] ;
331 -> 333 ;
334 [label="squared_error = 0.25\nsamples = 2\nvalue = 1.5"] ;
324 -> 334 ;
335 [label="X[18] <= 0.5\nsquared_error = 0.304\nsamples = 85\nvalue = 1.247"] ;
317 -> 335 ;
336 [label="squared_error = 0.0\nsamples = 6\nvalue = 1.0"] ;
335 -> 336 ;
337 [label="X[1] <= 25.0\nsquared_error = 0.322\nsamples = 79\nvalue = 1.266"] ;
335 -> 337 ;
338 [label="squared_error = 0.0\nsamples = 2\nvalue = 1.0"] ;
337 -> 338 ;
339 [label="squared_error = 0.328\nsamples = 77\nvalue = 1.273"] ;
337 -> 339 ;
340 [label="X[0] <= 2.5\nsquared_error = 0.347\nsamples = 2335\nvalue = 1.209"] ;
4 -> 340 ;
341 [label="X[6] <= 0.5\nsquared_error = 0.445\nsamples = 556\nvalue = 1.27"] ;
340 -> 341 ;
342 [label="X[14] <= 0.5\nsquared_error = 0.427\nsamples = 542\nvalue = 1.256"] ;
341 -> 342 ;
343 [label="X[13] <= 0.5\nsquared_error = 0.076\nsamples = 48\nvalue = 1.083"] ;
342 -> 343 ;
344 [label="squared_error = 0.0\nsamples = 21\nvalue = 1.0"] ;
343 -> 344 ;
345 [label="X[17] <= 0.5\nsquared_error = 0.126\nsamples = 27\nvalue = 1.148"] ;
343 -> 345 ;
346 [label="X[0] <= 1.5\nsquared_error = 0.106\nsamples = 25\nvalue = 1.12"] ;
345 -> 346 ;
347 [label="X[11] <= 0.5\nsquared_error = 0.25\nsamples = 2\nvalue = 1.5"] ;
346 -> 347 ;
348 [label="squared_error = 0.0\nsamples = 1\nvalue = 2.0"] ;
347 -> 348 ;
349 [label="squared_error = 0.0\nsamples = 1\nvalue = 1.0"] ;
347 -> 349 ;
350 [label="X[4] <= 0.5\nsquared_error = 0.079\nsamples = 23\nvalue = 1.087"] ;
346 -> 350 ;
351 [label="squared_error = 0.0\nsamples = 2\nvalue = 1.0"] ;
350 -> 351 ;
352 [label="X[1] <= 25.0\nsquared_error = 0.086\nsamples = 21\nvalue = 1.095"] ;
350 -> 352 ;
353 [label="squared_error = 0.0\nsamples = 1\nvalue = 1.0"] ;
352 -> 353 ;
354 [label="squared_error = 0.09\nsamples = 20\nvalue = 1.1"] ;
352 -> 354 ;
355 [label="squared_error = 0.25\nsamples = 2\nvalue = 1.5"] ;
345 -> 355 ;
356 [label="X[17] <= 0.5\nsquared_error = 0.458\nsamples = 494\nvalue = 1.273"] ;
342 -> 356 ;
357 [label="X[19] <= 0.5\nsquared_error = 0.48\nsamples = 457\nvalue = 1.287"] ;
356 -> 357 ;
358 [label="X[18] <= 0.5\nsquared_error = 0.49\nsamples = 445\nvalue = 1.292"] ;
357 -> 358 ;
359 [label="X[1] <= 25.0\nsquared_error = 0.544\nsamples = 120\nvalue = 1.35"] ;
358 -> 359 ;
360 [label="X[0] <= 1.5\nsquared_error = 1.0\nsamples = 2\nvalue = 2.0"] ;
359 -> 360 ;
361 [label="squared_error = 0.0\nsamples = 1\nvalue = 3.0"] ;
360 -> 361 ;
362 [label="squared_error = 0.0\nsamples = 1\nvalue = 1.0"] ;
360 -> 362 ;
363 [label="X[5] <= 0.5\nsquared_error = 0.529\nsamples = 118\nvalue = 1.339"] ;
359 -> 363 ;
364 [label="X[8] <= 0.5\nsquared_error = 0.54\nsamples = 115\nvalue = 1.348"] ;
363 -> 364 ;
365 [label="X[0] <= 1.5\nsquared_error = 0.515\nsamples = 95\nvalue = 1.326"] ;
364 -> 365 ;
366 [label="squared_error = 0.09\nsamples = 10\nvalue = 1.1"] ;
365 -> 366 ;
367 [label="X[7] <= 0.5\nsquared_error = 0.558\nsamples = 85\nvalue = 1.353"] ;
365 -> 367 ;
368 [label="squared_error = 0.568\nsamples = 83\nvalue = 1.361"] ;
367 -> 368 ;
369 [label="squared_error = 0.0\nsamples = 2\nvalue = 1.0"] ;
367 -> 369 ;
370 [label="X[0] <= 1.5\nsquared_error = 0.648\nsamples = 20\nvalue = 1.45"] ;
364 -> 370 ;
371 [label="squared_error = 2.25\nsamples = 2\nvalue = 2.5"] ;
370 -> 371 ;
372 [label="squared_error = 0.333\nsamples = 18\nvalue = 1.333"] ;
370 -> 372 ;
373 [label="squared_error = 0.0\nsamples = 3\nvalue = 1.0"] ;
363 -> 373 ;
374 [label="X[11] <= 0.5\nsquared_error = 0.468\nsamples = 325\nvalue = 1.271"] ;
358 -> 374 ;
375 [label="X[5] <= 0.5\nsquared_error = 0.473\nsamples = 321\nvalue = 1.274"] ;
374 -> 375 ;
376 [label="X[0] <= 1.5\nsquared_error = 0.477\nsamples = 318\nvalue = 1.277"] ;
375 -> 376 ;
377 [label="X[4] <= 0.5\nsquared_error = 0.271\nsamples = 38\nvalue = 1.211"] ;
376 -> 377 ;
378 [label="X[8] <= 0.5\nsquared_error = 0.09\nsamples = 10\nvalue = 1.1"] ;
377 -> 378 ;
379 [label="squared_error = 0.0\nsamples = 1\nvalue = 1.0"] ;
378 -> 379 ;
380 [label="squared_error = 0.099\nsamples = 9\nvalue = 1.111"] ;
378 -> 380 ;
381 [label="squared_error = 0.33\nsamples = 28\nvalue = 1.25"] ;
377 -> 381 ;
382 [label="X[10] <= 0.5\nsquared_error = 0.504\nsamples = 280\nvalue = 1.286"] ;
376 -> 382 ;
383 [label="X[7] <= 0.5\nsquared_error = 0.507\nsamples = 278\nvalue = 1.288"] ;
382 -> 383 ;
384 [label="X[8] <= 0.5\nsquared_error = 0.514\nsamples = 267\nvalue = 1.292"] ;
383 -> 384 ;
385 [label="X[4] <= 0.5\nsquared_error = 0.451\nsamples = 227\nvalue = 1.286"] ;
384 -> 385 ;
386 [label="squared_error = 0.0\nsamples = 3\nvalue = 1.0"] ;
385 -> 386 ;
387 [label="X[1] <= 25.0\nsquared_error = 0.456\nsamples = 224\nvalue = 1.29"] ;
385 -> 387 ;
388 [label="squared_error = 0.25\nsamples = 2\nvalue = 1.5"] ;
387 -> 388 ;
389 [label="squared_error = 0.457\nsamples = 222\nvalue = 1.288"] ;
387 -> 389 ;
390 [label="X[1] <= 25.0\nsquared_error = 0.869\nsamples = 40\nvalue = 1.325"] ;
384 -> 390 ;
391 [label="squared_error = 0.0\nsamples = 1\nvalue = 1.0"] ;
390 -> 391 ;
392 [label="squared_error = 0.889\nsamples = 39\nvalue = 1.333"] ;
390 -> 392 ;
393 [label="X[1] <= 25.0\nsquared_error = 0.331\nsamples = 11\nvalue = 1.182"] ;
383 -> 393 ;
394 [label="squared_error = 0.0\nsamples = 1\nvalue = 1.0"] ;
393 -> 394 ;
395 [label="squared_error = 0.36\nsamples = 10\nvalue = 1.2"] ;
393 -> 395 ;
396 [label="squared_error = 0.0\nsamples = 2\nvalue = 1.0"] ;
382 -> 396 ;
397 [label="squared_error = 0.0\nsamples = 3\nvalue = 1.0"] ;
375 -> 397 ;
398 [label="squared_error = 0.0\nsamples = 4\nvalue = 1.0"] ;
374 -> 398 ;
399 [label="X[0] <= 1.5\nsquared_error = 0.076\nsamples = 12\nvalue = 1.083"] ;
357 -> 399 ;
400 [label="squared_error = 0.0\nsamples = 3\nvalue = 1.0"] ;
399 -> 400 ;
401 [label="squared_error = 0.099\nsamples = 9\nvalue = 1.111"] ;
399 -> 401 ;
402 [label="X[5] <= 0.5\nsquared_error = 0.15\nsamples = 37\nvalue = 1.108"] ;
356 -> 402 ;
403 [label="X[8] <= 0.5\nsquared_error = 0.136\nsamples = 35\nvalue = 1.086"] ;
402 -> 403 ;
404 [label="X[4] <= 0.5\nsquared_error = 0.157\nsamples = 30\nvalue = 1.1"] ;
403 -> 404 ;
405 [label="X[11] <= 0.5\nsquared_error = 0.222\nsamples = 3\nvalue = 1.333"] ;
404 -> 405 ;
406 [label="squared_error = 0.0\nsamples = 1\nvalue = 2.0"] ;
405 -> 406 ;
407 [label="squared_error = 0.0\nsamples = 2\nvalue = 1.0"] ;
405 -> 407 ;
408 [label="X[0] <= 1.5\nsquared_error = 0.143\nsamples = 27\nvalue = 1.074"] ;
404 -> 408 ;
409 [label="squared_error = 0.0\nsamples = 4\nvalue = 1.0"] ;
408 -> 409 ;
410 [label="squared_error = 0.166\nsamples = 23\nvalue = 1.087"] ;
408 -> 410 ;
411 [label="squared_error = 0.0\nsamples = 5\nvalue = 1.0"] ;
403 -> 411 ;
412 [label="squared_error = 0.25\nsamples = 2\nvalue = 1.5"] ;
402 -> 412 ;
413 [label="X[18] <= 0.5\nsquared_error = 0.883\nsamples = 14\nvalue = 1.786"] ;
341 -> 413 ;
414 [label="X[17] <= 0.5\nsquared_error = 0.556\nsamples = 6\nvalue = 1.333"] ;
413 -> 414 ;
415 [label="squared_error = 0.0\nsamples = 4\nvalue = 1.0"] ;
414 -> 415 ;
416 [label="squared_error = 1.0\nsamples = 2\nvalue = 2.0"] ;
414 -> 416 ;
417 [label="X[0] <= 1.5\nsquared_error = 0.859\nsamples = 8\nvalue = 2.125"] ;
413 -> 417 ;
418 [label="squared_error = 0.0\nsamples = 1\nvalue = 2.0"] ;
417 -> 418 ;
419 [label="squared_error = 0.98\nsamples = 7\nvalue = 2.143"] ;
417 -> 419 ;
420 [label="X[18] <= 0.5\nsquared_error = 0.314\nsamples = 1779\nvalue = 1.189"] ;
340 -> 420 ;
421 [label="X[14] <= 0.5\nsquared_error = 0.344\nsamples = 668\nvalue = 1.217"] ;
420 -> 421 ;
422 [label="X[8] <= 0.5\nsquared_error = 0.519\nsamples = 35\nvalue = 1.371"] ;
421 -> 422 ;
423 [label="X[19] <= 0.5\nsquared_error = 0.367\nsamples = 26\nvalue = 1.308"] ;
422 -> 423 ;
424 [label="X[11] <= 0.5\nsquared_error = 0.44\nsamples = 20\nvalue = 1.4"] ;
423 -> 424 ;
425 [label="X[12] <= 0.5\nsquared_error = 0.443\nsamples = 19\nvalue = 1.368"] ;
424 -> 425 ;
426 [label="X[4] <= 0.5\nsquared_error = 0.34\nsamples = 16\nvalue = 1.312"] ;
425 -> 426 ;
427 [label="squared_error = 0.0\nsamples = 1\nvalue = 1.0"] ;
426 -> 427 ;
428 [label="X[1] <= 25.0\nsquared_error = 0.356\nsamples = 15\nvalue = 1.333"] ;
426 -> 428 ;
429 [label="squared_error = 0.0\nsamples = 1\nvalue = 1.0"] ;
428 -> 429 ;
430 [label="X[16] <= 0.5\nsquared_error = 0.372\nsamples = 14\nvalue = 1.357"] ;
428 -> 430 ;
431 [label="X[15] <= 0.5\nsquared_error = 0.21\nsamples = 10\nvalue = 1.3"] ;
430 -> 431 ;
432 [label="X[17] <= 0.5\nsquared_error = 0.188\nsamples = 8\nvalue = 1.25"] ;
431 -> 432 ;
433 [label="squared_error = 0.0\nsamples = 2\nvalue = 1.0"] ;
432 -> 433 ;
434 [label="squared_error = 0.222\nsamples = 6\nvalue = 1.333"] ;
432 -> 434 ;
435 [label="X[17] <= 0.5\nsquared_error = 0.25\nsamples = 2\nvalue = 1.5"] ;
431 -> 435 ;
436 [label="squared_error = 0.0\nsamples = 1\nvalue = 2.0"] ;
435 -> 436 ;
437 [label="squared_error = 0.0\nsamples = 1\nvalue = 1.0"] ;
435 -> 437 ;
438 [label="squared_error = 0.75\nsamples = 4\nvalue = 1.5"] ;
430 -> 438 ;
439 [label="X[17] <= 0.5\nsquared_error = 0.889\nsamples = 3\nvalue = 1.667"] ;
425 -> 439 ;
440 [label="squared_error = 0.0\nsamples = 2\nvalue = 1.0"] ;
439 -> 440 ;
441 [label="squared_error = 0.0\nsamples = 1\nvalue = 3.0"] ;
439 -> 441 ;
442 [label="squared_error = 0.0\nsamples = 1\nvalue = 2.0"] ;
424 -> 442 ;
443 [label="squared_error = 0.0\nsamples = 6\nvalue = 1.0"] ;
423 -> 443 ;
444 [label="X[19] <= 0.5\nsquared_error = 0.914\nsamples = 9\nvalue = 1.556"] ;
422 -> 444 ;
445 [label="X[13] <= 0.5\nsquared_error = 0.122\nsamples = 7\nvalue = 1.143"] ;
444 -> 445 ;
446 [label="X[16] <= 0.5\nsquared_error = 0.16\nsamples = 5\nvalue = 1.2"] ;
445 -> 446 ;
447 [label="squared_error = 0.188\nsamples = 4\nvalue = 1.25"] ;
446 -> 447 ;
448 [label="squared_error = 0.0\nsamples = 1\nvalue = 1.0"] ;
446 -> 448 ;
449 [label="squared_error = 0.0\nsamples = 2\nvalue = 1.0"] ;
445 -> 449 ;
450 [label="squared_error = 1.0\nsamples = 2\nvalue = 3.0"] ;
444 -> 450 ;
451 [label="X[5] <= 0.5\nsquared_error = 0.333\nsamples = 633\nvalue = 1.209"] ;
421 -> 451 ;
452 [label="X[4] <= 0.5\nsquared_error = 0.339\nsamples = 618\nvalue = 1.212"] ;
451 -> 452 ;
453 [label="X[8] <= 0.5\nsquared_error = 0.382\nsamples = 192\nvalue = 1.188"] ;
452 -> 453 ;
454 [label="X[17] <= 0.5\nsquared_error = 0.193\nsamples = 97\nvalue = 1.155"] ;
453 -> 454 ;
455 [label="X[11] <= 0.5\nsquared_error = 0.237\nsamples = 76\nvalue = 1.197"] ;
454 -> 455 ;
456 [label="X[9] <= 0.5\nsquared_error = 0.168\nsamples = 62\nvalue = 1.161"] ;
455 -> 456 ;
457 [label="X[6] <= 0.5\nsquared_error = 0.161\nsamples = 60\nvalue = 1.15"] ;
456 -> 457 ;
458 [label="X[19] <= 0.5\nsquared_error = 0.114\nsamples = 38\nvalue = 1.132"] ;
457 -> 458 ;
459 [label="X[7] <= 0.5\nsquared_error = 0.125\nsamples = 34\nvalue = 1.147"] ;
458 -> 459 ;
460 [label="X[10] <= 0.5\nsquared_error = 0.094\nsamples = 19\nvalue = 1.105"] ;
459 -> 460 ;
461 [label="squared_error = 0.09\nsamples = 10\nvalue = 1.1"] ;
460 -> 461 ;
462 [label="squared_error = 0.099\nsamples = 9\nvalue = 1.111"] ;
460 -> 462 ;
463 [label="squared_error = 0.16\nsamples = 15\nvalue = 1.2"] ;
459 -> 463 ;
464 [label="squared_error = 0.0\nsamples = 4\nvalue = 1.0"] ;
458 -> 464 ;
465 [label="X[1] <= 25.0\nsquared_error = 0.24\nsamples = 22\nvalue = 1.182"] ;
457 -> 465 ;
466 [label="squared_error = 0.0\nsamples = 1\nvalue = 1.0"] ;
465 -> 466 ;
467 [label="X[19] <= 0.5\nsquared_error = 0.249\nsamples = 21\nvalue = 1.19"] ;
465 -> 467 ;
468 [label="squared_error = 0.277\nsamples = 16\nvalue = 1.188"] ;
467 -> 468 ;
469 [label="squared_error = 0.16\nsamples = 5\nvalue = 1.2"] ;
467 -> 469 ;
470 [label="X[19] <= 0.5\nsquared_error = 0.25\nsamples = 2\nvalue = 1.5"] ;
456 -> 470 ;
471 [label="squared_error = 0.0\nsamples = 1\nvalue = 2.0"] ;
470 -> 471 ;
472 [label="squared_error = 0.0\nsamples = 1\nvalue = 1.0"] ;
470 -> 472 ;
473 [label="squared_error = 0.515\nsamples = 14\nvalue = 1.357"] ;
455 -> 473 ;
474 [label="squared_error = 0.0\nsamples = 21\nvalue = 1.0"] ;
454 -> 474 ;
475 [label="X[17] <= 0.5\nsquared_error = 0.572\nsamples = 95\nvalue = 1.221"] ;
453 -> 475 ;
476 [label="X[19] <= 0.5\nsquared_error = 0.239\nsamples = 85\nvalue = 1.176"] ;
475 -> 476 ;
477 [label="squared_error = 0.247\nsamples = 76\nvalue = 1.171"] ;
476 -> 477 ;
478 [label="squared_error = 0.173\nsamples = 9\nvalue = 1.222"] ;
476 -> 478 ;
479 [label="squared_error = 3.24\nsamples = 10\nvalue = 1.6"] ;
475 -> 479 ;
480 [label="X[17] <= 0.5\nsquared_error = 0.319\nsamples = 426\nvalue = 1.223"] ;
452 -> 480 ;
481 [label="X[19] <= 0.5\nsquared_error = 0.328\nsamples = 337\nvalue = 1.234"] ;
480 -> 481 ;
482 [label="X[1] <= 25.0\nsquared_error = 0.346\nsamples = 307\nvalue = 1.241"] ;
481 -> 482 ;
483 [label="squared_error = 0.139\nsamples = 6\nvalue = 1.167"] ;
482 -> 483 ;
484 [label="squared_error = 0.35\nsamples = 301\nvalue = 1.243"] ;
482 -> 484 ;
485 [label="squared_error = 0.139\nsamples = 30\nvalue = 1.167"] ;
481 -> 485 ;
486 [label="X[1] <= 25.0\nsquared_error = 0.282\nsamples = 89\nvalue = 1.18"] ;
480 -> 486 ;
487 [label="squared_error = 0.0\nsamples = 2\nvalue = 1.0"] ;
486 -> 487 ;
488 [label="squared_error = 0.288\nsamples = 87\nvalue = 1.184"] ;
486 -> 488 ;
489 [label="X[17] <= 0.5\nsquared_error = 0.062\nsamples = 15\nvalue = 1.067"] ;
451 -> 489 ;
490 [label="squared_error = 0.066\nsamples = 14\nvalue = 1.071"] ;
489 -> 490 ;
491 [label="squared_error = 0.0\nsamples = 1\nvalue = 1.0"] ;
489 -> 491 ;
492 [label="X[5] <= 0.5\nsquared_error = 0.296\nsamples = 1111\nvalue = 1.173"] ;
420 -> 492 ;
493 [label="X[14] <= 0.5\nsquared_error = 0.291\nsamples = 1099\nvalue = 1.168"] ;
492 -> 493 ;
494 [label="X[10] <= 0.5\nsquared_error = 0.107\nsamples = 156\nvalue = 1.09"] ;
493 -> 494 ;
495 [label="X[13] <= 0.5\nsquared_error = 0.103\nsamples = 154\nvalue = 1.084"] ;
494 -> 495 ;
496 [label="X[1] <= 25.0\nsquared_error = 0.047\nsamples = 80\nvalue = 1.05"] ;
495 -> 496 ;
497 [label="X[4] <= 0.5\nsquared_error = 0.188\nsamples = 4\nvalue = 1.25"] ;
496 -> 497 ;
498 [label="X[12] <= 0.5\nsquared_error = 0.25\nsamples = 2\nvalue = 1.5"] ;
497 -> 498 ;
499 [label="squared_error = 0.0\nsamples = 1\nvalue = 1.0"] ;
498 -> 499 ;
500 [label="squared_error = 0.0\nsamples = 1\nvalue = 2.0"] ;
498 -> 500 ;
501 [label="squared_error = 0.0\nsamples = 2\nvalue = 1.0"] ;
497 -> 501 ;
502 [label="X[15] <= 0.5\nsquared_error = 0.038\nsamples = 76\nvalue = 1.039"] ;
496 -> 502 ;
503 [label="X[12] <= 0.5\nsquared_error = 0.028\nsamples = 70\nvalue = 1.029"] ;
502 -> 503 ;
504 [label="X[4] <= 0.5\nsquared_error = 0.044\nsamples = 43\nvalue = 1.047"] ;
503 -> 504 ;
505 [label="squared_error = 0.0\nsamples = 13\nvalue = 1.0"] ;
504 -> 505 ;
506 [label="X[16] <= 0.5\nsquared_error = 0.062\nsamples = 30\nvalue = 1.067"] ;
504 -> 506 ;
507 [label="squared_error = 0.074\nsamples = 25\nvalue = 1.08"] ;
506 -> 507 ;
508 [label="squared_error = 0.0\nsamples = 5\nvalue = 1.0"] ;
506 -> 508 ;
509 [label="squared_error = 0.0\nsamples = 27\nvalue = 1.0"] ;
503 -> 509 ;
510 [label="X[4] <= 0.5\nsquared_error = 0.139\nsamples = 6\nvalue = 1.167"] ;
502 -> 510 ;
511 [label="squared_error = 0.0\nsamples = 3\nvalue = 1.0"] ;
510 -> 511 ;
512 [label="squared_error = 0.222\nsamples = 3\nvalue = 1.333"] ;
510 -> 512 ;
513 [label="X[6] <= 0.5\nsquared_error = 0.161\nsamples = 74\nvalue = 1.122"] ;
495 -> 513 ;
514 [label="X[7] <= 0.5\nsquared_error = 0.154\nsamples = 72\nvalue = 1.111"] ;
513 -> 514 ;
515 [label="X[9] <= 0.5\nsquared_error = 0.158\nsamples = 70\nvalue = 1.114"] ;
514 -> 515 ;
516 [label="X[4] <= 0.5\nsquared_error = 0.16\nsamples = 69\nvalue = 1.116"] ;
515 -> 516 ;
517 [label="X[8] <= 0.5\nsquared_error = 0.199\nsamples = 19\nvalue = 1.105"] ;
516 -> 517 ;
518 [label="squared_error = 0.0\nsamples = 1\nvalue = 1.0"] ;
517 -> 518 ;
519 [label="squared_error = 0.21\nsamples = 18\nvalue = 1.111"] ;
517 -> 519 ;
520 [label="squared_error = 0.146\nsamples = 50\nvalue = 1.12"] ;
516 -> 520 ;
521 [label="squared_error = 0.0\nsamples = 1\nvalue = 1.0"] ;
515 -> 521 ;
522 [label="squared_error = 0.0\nsamples = 2\nvalue = 1.0"] ;
514 -> 522 ;
523 [label="squared_error = 0.25\nsamples = 2\nvalue = 1.5"] ;
513 -> 523 ;
524 [label="X[13] <= 0.5\nsquared_error = 0.25\nsamples = 2\nvalue = 1.5"] ;
494 -> 524 ;
525 [label="squared_error = 0.0\nsamples = 1\nvalue = 2.0"] ;
524 -> 525 ;
526 [label="squared_error = 0.0\nsamples = 1\nvalue = 1.0"] ;
524 -> 526 ;
527 [label="X[4] <= 0.5\nsquared_error = 0.32\nsamples = 943\nvalue = 1.181"] ;
493 -> 527 ;
528 [label="X[8] <= 0.5\nsquared_error = 0.223\nsamples = 291\nvalue = 1.131"] ;
527 -> 528 ;
529 [label="X[11] <= 0.5\nsquared_error = 0.087\nsamples = 101\nvalue = 1.05"] ;
528 -> 529 ;
530 [label="X[7] <= 0.5\nsquared_error = 0.058\nsamples = 84\nvalue = 1.036"] ;
529 -> 530 ;
531 [label="X[10] <= 0.5\nsquared_error = 0.018\nsamples = 55\nvalue = 1.018"] ;
530 -> 531 ;
532 [label="squared_error = 0.0\nsamples = 41\nvalue = 1.0"] ;
531 -> 532 ;
533 [label="squared_error = 0.066\nsamples = 14\nvalue = 1.071"] ;
531 -> 533 ;
534 [label="squared_error = 0.133\nsamples = 29\nvalue = 1.069"] ;
530 -> 534 ;
535 [label="squared_error = 0.221\nsamples = 17\nvalue = 1.118"] ;
529 -> 535 ;
536 [label="X[1] <= 25.0\nsquared_error = 0.291\nsamples = 190\nvalue = 1.174"] ;
528 -> 536 ;
537 [label="squared_error = 0.0\nsamples = 1\nvalue = 1.0"] ;
536 -> 537 ;
538 [label="squared_error = 0.292\nsamples = 189\nvalue = 1.175"] ;
536 -> 538 ;
539 [label="X[1] <= 25.0\nsquared_error = 0.362\nsamples = 652\nvalue = 1.204"] ;
527 -> 539 ;
540 [label="squared_error = 0.678\nsamples = 17\nvalue = 1.294"] ;
539 -> 540 ;
541 [label="squared_error = 0.353\nsamples = 635\nvalue = 1.202"] ;
539 -> 541 ;
542 [label="squared_error = 0.576\nsamples = 12\nvalue = 1.583"] ;
492 -> 542 ;
543 [label="X[0] <= 1.5\nsquared_error = 0.137\nsamples = 45497\nvalue = 1.079"] ;
3 -> 543 ;
544 [label="X[13] <= 0.5\nsquared_error = 0.284\nsamples = 448\nvalue = 1.23"] ;
543 -> 544 ;
545 [label="X[4] <= 0.5\nsquared_error = 0.268\nsamples = 438\nvalue = 1.221"] ;
544 -> 545 ;
546 [label="X[8] <= 0.5\nsquared_error = 0.284\nsamples = 39\nvalue = 1.154"] ;
545 -> 546 ;
547 [label="X[11] <= 0.5\nsquared_error = 0.045\nsamples = 21\nvalue = 1.048"] ;
546 -> 547 ;
548 [label="squared_error = 0.0\nsamples = 13\nvalue = 1.0"] ;
547 -> 548 ;
549 [label="squared_error = 0.109\nsamples = 8\nvalue = 1.125"] ;
547 -> 549 ;
550 [label="X[14] <= 0.5\nsquared_error = 0.534\nsamples = 18\nvalue = 1.278"] ;
546 -> 550 ;
551 [label="squared_error = 0.0\nsamples = 3\nvalue = 1.0"] ;
550 -> 551 ;
552 [label="X[3] <= 1.5\nsquared_error = 0.622\nsamples = 15\nvalue = 1.333"] ;
550 -> 552 ;
553 [label="squared_error = 0.698\nsamples = 13\nvalue = 1.385"] ;
552 -> 553 ;
554 [label="squared_error = 0.0\nsamples = 2\nvalue = 1.0"] ;
552 -> 554 ;
555 [label="X[15] <= 0.5\nsquared_error = 0.266\nsamples = 399\nvalue = 1.228"] ;
545 -> 555 ;
556 [label="X[16] <= 0.5\nsquared_error = 0.265\nsamples = 398\nvalue = 1.226"] ;
555 -> 556 ;
557 [label="X[3] <= 1.5\nsquared_error = 0.267\nsamples = 395\nvalue = 1.228"] ;
556 -> 557 ;
558 [label="X[12] <= 0.5\nsquared_error = 0.244\nsamples = 335\nvalue = 1.221"] ;
557 -> 558 ;
559 [label="X[14] <= 0.5\nsquared_error = 0.248\nsamples = 325\nvalue = 1.225"] ;
558 -> 559 ;
560 [label="squared_error = 0.204\nsamples = 21\nvalue = 1.286"] ;
559 -> 560 ;
561 [label="X[1] <= 25.0\nsquared_error = 0.251\nsamples = 304\nvalue = 1.22"] ;
559 -> 561 ;
562 [label="squared_error = 0.204\nsamples = 7\nvalue = 1.286"] ;
561 -> 562 ;
563 [label="squared_error = 0.252\nsamples = 297\nvalue = 1.219"] ;
561 -> 563 ;
564 [label="X[1] <= 25.0\nsquared_error = 0.09\nsamples = 10\nvalue = 1.1"] ;
558 -> 564 ;
565 [label="squared_error = 0.0\nsamples = 1\nvalue = 1.0"] ;
564 -> 565 ;
566 [label="squared_error = 0.099\nsamples = 9\nvalue = 1.111"] ;
564 -> 566 ;
567 [label="X[1] <= 25.0\nsquared_error = 0.396\nsamples = 60\nvalue = 1.267"] ;
557 -> 567 ;
568 [label="squared_error = 0.0\nsamples = 1\nvalue = 1.0"] ;
567 -> 568 ;
569 [label="X[12] <= 0.5\nsquared_error = 0.401\nsamples = 59\nvalue = 1.271"] ;
567 -> 569 ;
570 [label="X[14] <= 0.5\nsquared_error = 0.417\nsamples = 55\nvalue = 1.273"] ;
569 -> 570 ;
571 [label="squared_error = 0.222\nsamples = 3\nvalue = 1.333"] ;
570 -> 571 ;
572 [label="squared_error = 0.428\nsamples = 52\nvalue = 1.269"] ;
570 -> 572 ;
573 [label="squared_error = 0.188\nsamples = 4\nvalue = 1.25"] ;
569 -> 573 ;
574 [label="squared_error = 0.0\nsamples = 3\nvalue = 1.0"] ;
556 -> 574 ;
575 [label="squared_error = 0.0\nsamples = 1\nvalue = 2.0"] ;
555 -> 575 ;
576 [label="X[3] <= 1.5\nsquared_error = 0.84\nsamples = 10\nvalue = 1.6"] ;
544 -> 576 ;
577 [label="X[6] <= 0.5\nsquared_error = 0.938\nsamples = 8\nvalue = 1.75"] ;
576 -> 577 ;
578 [label="squared_error = 1.061\nsamples = 7\nvalue = 1.714"] ;
577 -> 578 ;
579 [label="squared_error = 0.0\nsamples = 1\nvalue = 2.0"] ;
577 -> 579 ;
580 [label="squared_error = 0.0\nsamples = 2\nvalue = 1.0"] ;
576 -> 580 ;
581 [label="X[0] <= 2.5\nsquared_error = 0.135\nsamples = 45049\nvalue = 1.078"] ;
543 -> 581 ;
582 [label="X[14] <= 0.5\nsquared_error = 0.236\nsamples = 8716\nvalue = 1.103"] ;
581 -> 582 ;
583 [label="X[4] <= 0.5\nsquared_error = 0.672\nsamples = 1077\nvalue = 1.135"] ;
582 -> 583 ;
584 [label="X[8] <= 0.5\nsquared_error = 0.054\nsamples = 173\nvalue = 1.058"] ;
583 -> 584 ;
585 [label="X[6] <= 0.5\nsquared_error = 0.015\nsamples = 67\nvalue = 1.015"] ;
584 -> 585 ;
586 [label="squared_error = 0.0\nsamples = 55\nvalue = 1.0"] ;
585 -> 586 ;
587 [label="X[12] <= 0.5\nsquared_error = 0.076\nsamples = 12\nvalue = 1.083"] ;
585 -> 587 ;
588 [label="X[3] <= 1.5\nsquared_error = 0.099\nsamples = 9\nvalue = 1.111"] ;
587 -> 588 ;
589 [label="squared_error = 0.122\nsamples = 7\nvalue = 1.143"] ;
588 -> 589 ;
590 [label="squared_error = 0.0\nsamples = 2\nvalue = 1.0"] ;
588 -> 590 ;
591 [label="squared_error = 0.0\nsamples = 3\nvalue = 1.0"] ;
587 -> 591 ;
592 [label="X[12] <= 0.5\nsquared_error = 0.078\nsamples = 106\nvalue = 1.085"] ;
584 -> 592 ;
593 [label="X[3] <= 1.5\nsquared_error = 0.051\nsamples = 74\nvalue = 1.054"] ;
592 -> 593 ;
594 [label="X[13] <= 0.5\nsquared_error = 0.059\nsamples = 64\nvalue = 1.062"] ;
593 -> 594 ;
595 [label="X[16] <= 0.5\nsquared_error = 0.045\nsamples = 42\nvalue = 1.048"] ;
594 -> 595 ;
596 [label="X[15] <= 0.5\nsquared_error = 0.049\nsamples = 39\nvalue = 1.051"] ;
595 -> 596 ;
597 [label="squared_error = 0.052\nsamples = 36\nvalue = 1.056"] ;
596 -> 597 ;
598 [label="squared_error = 0.0\nsamples = 3\nvalue = 1.0"] ;
596 -> 598 ;
599 [label="squared_error = 0.0\nsamples = 3\nvalue = 1.0"] ;
595 -> 599 ;
600 [label="squared_error = 0.083\nsamples = 22\nvalue = 1.091"] ;
594 -> 600 ;
601 [label="squared_error = 0.0\nsamples = 10\nvalue = 1.0"] ;
593 -> 601 ;
602 [label="X[1] <= 25.0\nsquared_error = 0.132\nsamples = 32\nvalue = 1.156"] ;
592 -> 602 ;
603 [label="squared_error = 0.0\nsamples = 5\nvalue = 1.0"] ;
602 -> 603 ;
604 [label="squared_error = 0.151\nsamples = 27\nvalue = 1.185"] ;
602 -> 604 ;
605 [label="X[16] <= 0.5\nsquared_error = 0.789\nsamples = 904\nvalue = 1.149"] ;
583 -> 605 ;
606 [label="X[12] <= 0.5\nsquared_error = 0.823\nsamples = 864\nvalue = 1.155"] ;
605 -> 606 ;
607 [label="X[15] <= 0.5\nsquared_error = 1.132\nsamples = 549\nvalue = 1.169"] ;
606 -> 607 ;
608 [label="X[1] <= 25.0\nsquared_error = 1.184\nsamples = 521\nvalue = 1.175"] ;
607 -> 608 ;
609 [label="squared_error = 0.0\nsamples = 8\nvalue = 1.0"] ;
608 -> 609 ;
610 [label="X[3] <= 1.5\nsquared_error = 1.202\nsamples = 513\nvalue = 1.177"] ;
608 -> 610 ;
611 [label="X[13] <= 0.5\nsquared_error = 1.326\nsamples = 461\nvalue = 1.184"] ;
610 -> 611 ;
612 [label="squared_error = 1.686\nsamples = 336\nvalue = 1.185"] ;
611 -> 612 ;
613 [label="squared_error = 0.358\nsamples = 125\nvalue = 1.184"] ;
611 -> 613 ;
614 [label="X[13] <= 0.5\nsquared_error = 0.102\nsamples = 52\nvalue = 1.115"] ;
610 -> 614 ;
615 [label="squared_error = 0.16\nsamples = 15\nvalue = 1.2"] ;
614 -> 615 ;
616 [label="squared_error = 0.075\nsamples = 37\nvalue = 1.081"] ;
614 -> 616 ;
617 [label="X[3] <= 1.5\nsquared_error = 0.138\nsamples = 28\nvalue = 1.071"] ;
607 -> 617 ;
618 [label="squared_error = 0.16\nsamples = 24\nvalue = 1.083"] ;
617 -> 618 ;
619 [label="squared_error = 0.0\nsamples = 4\nvalue = 1.0"] ;
617 -> 619 ;
620 [label="X[3] <= 1.5\nsquared_error = 0.285\nsamples = 315\nvalue = 1.13"] ;
606 -> 620 ;
621 [label="X[1] <= 25.0\nsquared_error = 0.18\nsamples = 287\nvalue = 1.108"] ;
620 -> 621 ;
622 [label="squared_error = 0.539\nsamples = 30\nvalue = 1.167"] ;
621 -> 622 ;
623 [label="squared_error = 0.138\nsamples = 257\nvalue = 1.101"] ;
621 -> 623 ;
624 [label="squared_error = 1.301\nsamples = 28\nvalue = 1.357"] ;
620 -> 624 ;
625 [label="X[1] <= 25.0\nsquared_error = 0.024\nsamples = 40\nvalue = 1.025"] ;
605 -> 625 ;
626 [label="X[3] <= 1.5\nsquared_error = 0.122\nsamples = 7\nvalue = 1.143"] ;
625 -> 626 ;
627 [label="squared_error = 0.0\nsamples = 5\nvalue = 1.0"] ;
626 -> 627 ;
628 [label="squared_error = 0.25\nsamples = 2\nvalue = 1.5"] ;
626 -> 628 ;
629 [label="squared_error = 0.0\nsamples = 33\nvalue = 1.0"] ;
625 -> 629 ;
630 [label="X[6] <= 0.5\nsquared_error = 0.174\nsamples = 7639\nvalue = 1.099"] ;
582 -> 630 ;
631 [label="X[3] <= 1.5\nsquared_error = 0.176\nsamples = 7552\nvalue = 1.099"] ;
630 -> 631 ;
632 [label="X[10] <= 0.5\nsquared_error = 0.17\nsamples = 6550\nvalue = 1.097"] ;
631 -> 632 ;
633 [label="X[8] <= 0.5\nsquared_error = 0.169\nsamples = 6537\nvalue = 1.097"] ;
632 -> 633 ;
634 [label="X[1] <= 25.0\nsquared_error = 0.164\nsamples = 5998\nvalue = 1.095"] ;
633 -> 634 ;
635 [label="X[11] <= 0.5\nsquared_error = 0.122\nsamples = 291\nvalue = 1.072"] ;
634 -> 635 ;
636 [label="X[4] <= 0.5\nsquared_error = 0.123\nsamples = 282\nvalue = 1.071"] ;
635 -> 636 ;
637 [label="squared_error = 0.0\nsamples = 3\nvalue = 1.0"] ;
636 -> 637 ;
638 [label="squared_error = 0.124\nsamples = 279\nvalue = 1.072"] ;
636 -> 638 ;
639 [label="squared_error = 0.099\nsamples = 9\nvalue = 1.111"] ;
635 -> 639 ;
640 [label="X[7] <= 0.5\nsquared_error = 0.166\nsamples = 5707\nvalue = 1.097"] ;
634 -> 640 ;
641 [label="X[5] <= 0.5\nsquared_error = 0.165\nsamples = 5665\nvalue = 1.096"] ;
640 -> 641 ;
642 [label="X[4] <= 0.5\nsquared_error = 0.165\nsamples = 5658\nvalue = 1.096"] ;
641 -> 642 ;
643 [label="X[11] <= 0.5\nsquared_error = 0.191\nsamples = 172\nvalue = 1.081"] ;
642 -> 643 ;
644 [label="X[9] <= 0.5\nsquared_error = 0.031\nsamples = 62\nvalue = 1.032"] ;
643 -> 644 ;
645 [label="squared_error = 0.033\nsamples = 59\nvalue = 1.034"] ;
644 -> 645 ;
646 [label="squared_error = 0.0\nsamples = 3\nvalue = 1.0"] ;
644 -> 646 ;
647 [label="squared_error = 0.279\nsamples = 110\nvalue = 1.109"] ;
643 -> 647 ;
648 [label="squared_error = 0.164\nsamples = 5486\nvalue = 1.097"] ;
642 -> 648 ;
649 [label="squared_error = 0.0\nsamples = 7\nvalue = 1.0"] ;
641 -> 649 ;
650 [label="squared_error = 0.265\nsamples = 42\nvalue = 1.143"] ;
640 -> 650 ;
651 [label="X[1] <= 25.0\nsquared_error = 0.234\nsamples = 539\nvalue = 1.113"] ;
633 -> 651 ;
652 [label="squared_error = 0.154\nsamples = 21\nvalue = 1.19"] ;
651 -> 652 ;
653 [label="squared_error = 0.237\nsamples = 518\nvalue = 1.11"] ;
651 -> 653 ;
654 [label="X[1] <= 25.0\nsquared_error = 0.639\nsamples = 13\nvalue = 1.231"] ;
632 -> 654 ;
655 [label="squared_error = 0.0\nsamples = 1\nvalue = 1.0"] ;
654 -> 655 ;
656 [label="squared_error = 0.688\nsamples = 12\nvalue = 1.25"] ;
654 -> 656 ;
657 [label="X[5] <= 0.5\nsquared_error = 0.21\nsamples = 1002\nvalue = 1.113"] ;
631 -> 657 ;
658 [label="X[4] <= 0.5\nsquared_error = 0.209\nsamples = 996\nvalue = 1.111"] ;
657 -> 658 ;
659 [label="X[7] <= 0.5\nsquared_error = 0.072\nsamples = 94\nvalue = 1.053"] ;
658 -> 659 ;
660 [label="X[11] <= 0.5\nsquared_error = 0.065\nsamples = 89\nvalue = 1.045"] ;
659 -> 660 ;
661 [label="X[10] <= 0.5\nsquared_error = 0.077\nsamples = 75\nvalue = 1.053"] ;
660 -> 661 ;
662 [label="X[8] <= 0.5\nsquared_error = 0.08\nsamples = 72\nvalue = 1.056"] ;
661 -> 662 ;
663 [label="squared_error = 0.076\nsamples = 12\nvalue = 1.083"] ;
662 -> 663 ;
664 [label="squared_error = 0.081\nsamples = 60\nvalue = 1.05"] ;
662 -> 664 ;
665 [label="squared_error = 0.0\nsamples = 3\nvalue = 1.0"] ;
661 -> 665 ;
666 [label="squared_error = 0.0\nsamples = 14\nvalue = 1.0"] ;
660 -> 666 ;
667 [label="squared_error = 0.16\nsamples = 5\nvalue = 1.2"] ;
659 -> 667 ;
668 [label="X[1] <= 25.0\nsquared_error = 0.223\nsamples = 902\nvalue = 1.118"] ;
658 -> 668 ;
669 [label="squared_error = 0.186\nsamples = 25\nvalue = 1.12"] ;
668 -> 669 ;
670 [label="squared_error = 0.225\nsamples = 877\nvalue = 1.117"] ;
668 -> 670 ;
671 [label="squared_error = 0.222\nsamples = 6\nvalue = 1.333"] ;
657 -> 671 ;
672 [label="X[3] <= 1.5\nsquared_error = 0.044\nsamples = 87\nvalue = 1.046"] ;
630 -> 672 ;
673 [label="X[1] <= 25.0\nsquared_error = 0.054\nsamples = 70\nvalue = 1.057"] ;
672 -> 673 ;
674 [label="squared_error = 0.0\nsamples = 2\nvalue = 1.0"] ;
673 -> 674 ;
675 [label="squared_error = 0.055\nsamples = 68\nvalue = 1.059"] ;
673 -> 675 ;
676 [label="squared_error = 0.0\nsamples = 17\nvalue = 1.0"] ;
672 -> 676 ;
677 [label="X[13] <= 0.5\nsquared_error = 0.111\nsamples = 36333\nvalue = 1.072"] ;
581 -> 677 ;
678 [label="X[3] <= 1.5\nsquared_error = 0.108\nsamples = 35365\nvalue = 1.071"] ;
677 -> 678 ;
679 [label="X[15] <= 0.5\nsquared_error = 0.105\nsamples = 31365\nvalue = 1.069"] ;
678 -> 679 ;
680 [label="X[12] <= 0.5\nsquared_error = 0.105\nsamples = 31255\nvalue = 1.069"] ;
679 -> 680 ;
681 [label="X[8] <= 0.5\nsquared_error = 0.105\nsamples = 29725\nvalue = 1.069"] ;
680 -> 681 ;
682 [label="X[14] <= 0.5\nsquared_error = 0.101\nsamples = 27098\nvalue = 1.069"] ;
681 -> 682 ;
683 [label="X[6] <= 0.5\nsquared_error = 0.111\nsamples = 1689\nvalue = 1.081"] ;
682 -> 683 ;
684 [label="X[4] <= 0.5\nsquared_error = 0.111\nsamples = 1666\nvalue = 1.08"] ;
683 -> 684 ;
685 [label="X[1] <= 25.0\nsquared_error = 0.179\nsamples = 116\nvalue = 1.103"] ;
684 -> 685 ;
686 [label="squared_error = 0.0\nsamples = 6\nvalue = 1.0"] ;
685 -> 686 ;
687 [label="X[10] <= 0.5\nsquared_error = 0.188\nsamples = 110\nvalue = 1.109"] ;
685 -> 687 ;
688 [label="X[11] <= 0.5\nsquared_error = 0.196\nsamples = 105\nvalue = 1.114"] ;
687 -> 688 ;
689 [label="X[7] <= 0.5\nsquared_error = 0.335\nsamples = 39\nvalue = 1.154"] ;
688 -> 689 ;
690 [label="X[16] <= 0.5\nsquared_error = 0.562\nsamples = 21\nvalue = 1.238"] ;
689 -> 690 ;
691 [label="X[9] <= 0.5\nsquared_error = 0.645\nsamples = 18\nvalue = 1.278"] ;
690 -> 691 ;
692 [label="X[5] <= 0.5\nsquared_error = 0.715\nsamples = 16\nvalue = 1.312"] ;
691 -> 692 ;
693 [label="squared_error = 0.756\nsamples = 15\nvalue = 1.333"] ;
692 -> 693 ;
694 [label="squared_error = 0.0\nsamples = 1\nvalue = 1.0"] ;
692 -> 694 ;
695 [label="squared_error = 0.0\nsamples = 2\nvalue = 1.0"] ;
691 -> 695 ;
696 [label="squared_error = 0.0\nsamples = 3\nvalue = 1.0"] ;
690 -> 696 ;
697 [label="X[16] <= 0.5\nsquared_error = 0.052\nsamples = 18\nvalue = 1.056"] ;
689 -> 697 ;
698 [label="squared_error = 0.062\nsamples = 15\nvalue = 1.067"] ;
697 -> 698 ;
699 [label="squared_error = 0.0\nsamples = 3\nvalue = 1.0"] ;
697 -> 699 ;
700 [label="X[16] <= 0.5\nsquared_error = 0.113\nsamples = 66\nvalue = 1.091"] ;
688 -> 700 ;
701 [label="squared_error = 0.114\nsamples = 34\nvalue = 1.059"] ;
700 -> 701 ;
702 [label="squared_error = 0.109\nsamples = 32\nvalue = 1.125"] ;
700 -> 702 ;
703 [label="squared_error = 0.0\nsamples = 5\nvalue = 1.0"] ;
687 -> 703 ;
704 [label="X[1] <= 25.0\nsquared_error = 0.106\nsamples = 1550\nvalue = 1.078"] ;
684 -> 704 ;
705 [label="X[16] <= 0.5\nsquared_error = 0.093\nsamples = 52\nvalue = 1.058"] ;
704 -> 705 ;
706 [label="squared_error = 0.0\nsamples = 24\nvalue = 1.0"] ;
705 -> 706 ;
707 [label="squared_error = 0.167\nsamples = 28\nvalue = 1.107"] ;
705 -> 707 ;
708 [label="X[16] <= 0.5\nsquared_error = 0.106\nsamples = 1498\nvalue = 1.079"] ;
704 -> 708 ;
709 [label="squared_error = 0.105\nsamples = 1342\nvalue = 1.078"] ;
708 -> 709 ;
710 [label="squared_error = 0.115\nsamples = 156\nvalue = 1.083"] ;
708 -> 710 ;
711 [label="X[1] <= 25.0\nsquared_error = 0.144\nsamples = 23\nvalue = 1.174"] ;
683 -> 711 ;
712 [label="squared_error = 0.0\nsamples = 1\nvalue = 1.0"] ;
711 -> 712 ;
713 [label="X[16] <= 0.5\nsquared_error = 0.149\nsamples = 22\nvalue = 1.182"] ;
711 -> 713 ;
714 [label="squared_error = 0.139\nsamples = 18\nvalue = 1.167"] ;
713 -> 714 ;
715 [label="squared_error = 0.188\nsamples = 4\nvalue = 1.25"] ;
713 -> 715 ;
716 [label="X[5] <= 0.5\nsquared_error = 0.1\nsamples = 25409\nvalue = 1.068"] ;
682 -> 716 ;
717 [label="X[4] <= 0.5\nsquared_error = 0.1\nsamples = 25380\nvalue = 1.068"] ;
716 -> 717 ;
718 [label="X[9] <= 0.5\nsquared_error = 0.172\nsamples = 1479\nvalue = 1.061"] ;
717 -> 718 ;
719 [label="X[10] <= 0.5\nsquared_error = 0.174\nsamples = 1465\nvalue = 1.061"] ;
718 -> 719 ;
720 [label="X[6] <= 0.5\nsquared_error = 0.181\nsamples = 1368\nvalue = 1.06"] ;
719 -> 720 ;
721 [label="X[11] <= 0.5\nsquared_error = 0.213\nsamples = 1046\nvalue = 1.057"] ;
720 -> 721 ;
722 [label="X[7] <= 0.5\nsquared_error = 0.049\nsamples = 461\nvalue = 1.052"] ;
721 -> 722 ;
723 [label="X[1] <= 25.0\nsquared_error = 0.044\nsamples = 237\nvalue = 1.046"] ;
722 -> 723 ;
724 [label="squared_error = 0.0\nsamples = 11\nvalue = 1.0"] ;
723 -> 724 ;
725 [label="squared_error = 0.046\nsamples = 226\nvalue = 1.049"] ;
723 -> 725 ;
726 [label="X[1] <= 25.0\nsquared_error = 0.055\nsamples = 224\nvalue = 1.058"] ;
722 -> 726 ;
727 [label="squared_error = 0.099\nsamples = 9\nvalue = 1.111"] ;
726 -> 727 ;
728 [label="squared_error = 0.053\nsamples = 215\nvalue = 1.056"] ;
726 -> 728 ;
729 [label="X[1] <= 25.0\nsquared_error = 0.342\nsamples = 585\nvalue = 1.062"] ;
721 -> 729 ;
730 [label="squared_error = 0.133\nsamples = 29\nvalue = 1.069"] ;
729 -> 730 ;
731 [label="squared_error = 0.352\nsamples = 556\nvalue = 1.061"] ;
729 -> 731 ;
732 [label="X[1] <= 25.0\nsquared_error = 0.076\nsamples = 322\nvalue = 1.068"] ;
720 -> 732 ;
733 [label="squared_error = 0.079\nsamples = 23\nvalue = 1.087"] ;
732 -> 733 ;
734 [label="squared_error = 0.076\nsamples = 299\nvalue = 1.067"] ;
732 -> 734 ;
735 [label="X[1] <= 25.0\nsquared_error = 0.076\nsamples = 97\nvalue = 1.082"] ;
719 -> 735 ;
736 [label="squared_error = 0.0\nsamples = 5\nvalue = 1.0"] ;
735 -> 736 ;
737 [label="squared_error = 0.079\nsamples = 92\nvalue = 1.087"] ;
735 -> 737 ;
738 [label="squared_error = 0.0\nsamples = 14\nvalue = 1.0"] ;
718 -> 738 ;
739 [label="X[1] <= 25.0\nsquared_error = 0.096\nsamples = 23901\nvalue = 1.068"] ;
717 -> 739 ;
740 [label="squared_error = 0.113\nsamples = 1040\nvalue = 1.069"] ;
739 -> 740 ;
741 [label="squared_error = 0.095\nsamples = 22861\nvalue = 1.068"] ;
739 -> 741 ;
742 [label="X[1] <= 25.0\nsquared_error = 0.119\nsamples = 29\nvalue = 1.138"] ;
716 -> 742 ;
743 [label="squared_error = 0.0\nsamples = 2\nvalue = 1.0"] ;
742 -> 743 ;
744 [label="squared_error = 0.126\nsamples = 27\nvalue = 1.148"] ;
742 -> 744 ;
745 [label="X[14] <= 0.5\nsquared_error = 0.15\nsamples = 2627\nvalue = 1.078"] ;
681 -> 745 ;
746 [label="X[16] <= 0.5\nsquared_error = 0.069\nsamples = 183\nvalue = 1.049"] ;
745 -> 746 ;
747 [label="X[1] <= 25.0\nsquared_error = 0.075\nsamples = 167\nvalue = 1.054"] ;
746 -> 747 ;
748 [label="squared_error = 0.0\nsamples = 3\nvalue = 1.0"] ;
747 -> 748 ;
749 [label="squared_error = 0.076\nsamples = 164\nvalue = 1.055"] ;
747 -> 749 ;
750 [label="squared_error = 0.0\nsamples = 16\nvalue = 1.0"] ;
746 -> 750 ;
751 [label="X[1] <= 25.0\nsquared_error = 0.156\nsamples = 2444\nvalue = 1.08"] ;
745 -> 751 ;
752 [label="squared_error = 0.1\nsamples = 105\nvalue = 1.067"] ;
751 -> 752 ;
753 [label="squared_error = 0.159\nsamples = 2339\nvalue = 1.08"] ;
751 -> 753 ;
754 [label="X[7] <= 0.5\nsquared_error = 0.104\nsamples = 1530\nvalue = 1.058"] ;
680 -> 754 ;
755 [label="X[1] <= 25.0\nsquared_error = 0.101\nsamples = 1520\nvalue = 1.055"] ;
754 -> 755 ;
756 [label="X[4] <= 0.5\nsquared_error = 0.019\nsamples = 154\nvalue = 1.019"] ;
755 -> 756 ;
757 [label="squared_error = 0.0\nsamples = 23\nvalue = 1.0"] ;
756 -> 757 ;
758 [label="squared_error = 0.022\nsamples = 131\nvalue = 1.023"] ;
756 -> 758 ;
759 [label="X[4] <= 0.5\nsquared_error = 0.11\nsamples = 1366\nvalue = 1.059"] ;
755 -> 759 ;
760 [label="X[11] <= 0.5\nsquared_error = 0.042\nsamples = 187\nvalue = 1.032"] ;
759 -> 760 ;
761 [label="X[8] <= 0.5\nsquared_error = 0.02\nsamples = 147\nvalue = 1.02"] ;
760 -> 761 ;
762 [label="squared_error = 0.0\nsamples = 27\nvalue = 1.0"] ;
761 -> 762 ;
763 [label="squared_error = 0.024\nsamples = 120\nvalue = 1.025"] ;
761 -> 763 ;
764 [label="squared_error = 0.119\nsamples = 40\nvalue = 1.075"] ;
760 -> 764 ;
765 [label="squared_error = 0.121\nsamples = 1179\nvalue = 1.064"] ;
759 -> 765 ;
766 [label="squared_error = 0.44\nsamples = 10\nvalue = 1.4"] ;
754 -> 766 ;
767 [label="X[11] <= 0.5\nsquared_error = 0.129\nsamples = 110\nvalue = 1.127"] ;
679 -> 767 ;
768 [label="X[6] <= 0.5\nsquared_error = 0.125\nsamples = 107\nvalue = 1.121"] ;
767 -> 768 ;
769 [label="X[7] <= 0.5\nsquared_error = 0.123\nsamples = 102\nvalue = 1.118"] ;
768 -> 769 ;
770 [label="X[1] <= 25.0\nsquared_error = 0.126\nsamples = 100\nvalue = 1.12"] ;
769 -> 770 ;
771 [label="squared_error = 0.0\nsamples = 1\nvalue = 1.0"] ;
770 -> 771 ;
772 [label="X[4] <= 0.5\nsquared_error = 0.127\nsamples = 99\nvalue = 1.121"] ;
770 -> 772 ;
773 [label="X[8] <= 0.5\nsquared_error = 0.099\nsamples = 9\nvalue = 1.111"] ;
772 -> 773 ;
774 [label="squared_error = 0.0\nsamples = 1\nvalue = 1.0"] ;
773 -> 774 ;
775 [label="squared_error = 0.109\nsamples = 8\nvalue = 1.125"] ;
773 -> 775 ;
776 [label="squared_error = 0.13\nsamples = 90\nvalue = 1.122"] ;
772 -> 776 ;
777 [label="squared_error = 0.0\nsamples = 2\nvalue = 1.0"] ;
769 -> 777 ;
778 [label="squared_error = 0.16\nsamples = 5\nvalue = 1.2"] ;
768 -> 778 ;
779 [label="squared_error = 0.222\nsamples = 3\nvalue = 1.333"] ;
767 -> 779 ;
780 [label="X[1] <= 25.0\nsquared_error = 0.13\nsamples = 4000\nvalue = 1.085"] ;
678 -> 780 ;
781 [label="X[4] <= 0.5\nsquared_error = 0.054\nsamples = 125\nvalue = 1.04"] ;
780 -> 781 ;
782 [label="squared_error = 0.0\nsamples = 24\nvalue = 1.0"] ;
781 -> 782 ;
783 [label="X[14] <= 0.5\nsquared_error = 0.067\nsamples = 101\nvalue = 1.05"] ;
781 -> 783 ;
784 [label="squared_error = 0.0\nsamples = 13\nvalue = 1.0"] ;
783 -> 784 ;
785 [label="squared_error = 0.076\nsamples = 88\nvalue = 1.057"] ;
783 -> 785 ;
786 [label="X[9] <= 0.5\nsquared_error = 0.132\nsamples = 3875\nvalue = 1.086"] ;
780 -> 786 ;
787 [label="X[11] <= 0.5\nsquared_error = 0.132\nsamples = 3867\nvalue = 1.086"] ;
786 -> 787 ;
788 [label="X[6] <= 0.5\nsquared_error = 0.133\nsamples = 3804\nvalue = 1.087"] ;
787 -> 788 ;
789 [label="X[14] <= 0.5\nsquared_error = 0.135\nsamples = 3721\nvalue = 1.088"] ;
788 -> 789 ;
790 [label="X[10] <= 0.5\nsquared_error = 0.078\nsamples = 238\nvalue = 1.076"] ;
789 -> 790 ;
791 [label="X[8] <= 0.5\nsquared_error = 0.075\nsamples = 237\nvalue = 1.072"] ;
790 -> 791 ;
792 [label="X[15] <= 0.5\nsquared_error = 0.069\nsamples = 207\nvalue = 1.063"] ;
791 -> 792 ;
793 [label="X[16] <= 0.5\nsquared_error = 0.054\nsamples = 191\nvalue = 1.058"] ;
792 -> 793 ;
794 [label="X[4] <= 0.5\nsquared_error = 0.06\nsamples = 155\nvalue = 1.065"] ;
793 -> 794 ;
795 [label="X[12] <= 0.5\nsquared_error = 0.09\nsamples = 10\nvalue = 1.1"] ;
794 -> 795 ;
796 [label="X[7] <= 0.5\nsquared_error = 0.139\nsamples = 6\nvalue = 1.167"] ;
795 -> 796 ;
797 [label="squared_error = 0.222\nsamples = 3\nvalue = 1.333"] ;
796 -> 797 ;
798 [label="squared_error = 0.0\nsamples = 3\nvalue = 1.0"] ;
796 -> 798 ;
799 [label="squared_error = 0.0\nsamples = 4\nvalue = 1.0"] ;
795 -> 799 ;
800 [label="X[12] <= 0.5\nsquared_error = 0.058\nsamples = 145\nvalue = 1.062"] ;
794 -> 800 ;
801 [label="squared_error = 0.059\nsamples = 63\nvalue = 1.063"] ;
800 -> 801 ;
802 [label="squared_error = 0.057\nsamples = 82\nvalue = 1.061"] ;
800 -> 802 ;
803 [label="squared_error = 0.027\nsamples = 36\nvalue = 1.028"] ;
793 -> 803 ;
804 [label="X[4] <= 0.5\nsquared_error = 0.234\nsamples = 16\nvalue = 1.125"] ;
792 -> 804 ;
805 [label="squared_error = 0.0\nsamples = 1\nvalue = 1.0"] ;
804 -> 805 ;
806 [label="squared_error = 0.249\nsamples = 15\nvalue = 1.133"] ;
804 -> 806 ;
807 [label="X[16] <= 0.5\nsquared_error = 0.116\nsamples = 30\nvalue = 1.133"] ;
791 -> 807 ;
808 [label="X[12] <= 0.5\nsquared_error = 0.096\nsamples = 28\nvalue = 1.107"] ;
807 -> 808 ;
809 [label="X[15] <= 0.5\nsquared_error = 0.047\nsamples = 20\nvalue = 1.05"] ;
808 -> 809 ;
810 [label="squared_error = 0.059\nsamples = 16\nvalue = 1.062"] ;
809 -> 810 ;
811 [label="squared_error = 0.0\nsamples = 4\nvalue = 1.0"] ;
809 -> 811 ;
812 [label="squared_error = 0.188\nsamples = 8\nvalue = 1.25"] ;
808 -> 812 ;
813 [label="squared_error = 0.25\nsamples = 2\nvalue = 1.5"] ;
807 -> 813 ;
814 [label="squared_error = 0.0\nsamples = 1\nvalue = 2.0"] ;
790 -> 814 ;
815 [label="X[10] <= 0.5\nsquared_error = 0.139\nsamples = 3483\nvalue = 1.088"] ;
789 -> 815 ;
816 [label="X[7] <= 0.5\nsquared_error = 0.14\nsamples = 3457\nvalue = 1.089"] ;
815 -> 816 ;
817 [label="X[4] <= 0.5\nsquared_error = 0.14\nsamples = 3418\nvalue = 1.089"] ;
816 -> 817 ;
818 [label="X[8] <= 0.5\nsquared_error = 0.11\nsamples = 425\nvalue = 1.085"] ;
817 -> 818 ;
819 [label="X[5] <= 0.5\nsquared_error = 0.054\nsamples = 52\nvalue = 1.058"] ;
818 -> 819 ;
820 [label="squared_error = 0.051\nsamples = 37\nvalue = 1.054"] ;
819 -> 820 ;
821 [label="squared_error = 0.062\nsamples = 15\nvalue = 1.067"] ;
819 -> 821 ;
822 [label="squared_error = 0.118\nsamples = 373\nvalue = 1.088"] ;
818 -> 822 ;
823 [label="squared_error = 0.145\nsamples = 2993\nvalue = 1.089"] ;
817 -> 823 ;
824 [label="squared_error = 0.092\nsamples = 39\nvalue = 1.103"] ;
816 -> 824 ;
825 [label="squared_error = 0.037\nsamples = 26\nvalue = 1.038"] ;
815 -> 825 ;
826 [label="X[14] <= 0.5\nsquared_error = 0.046\nsamples = 83\nvalue = 1.048"] ;
788 -> 826 ;
827 [label="squared_error = 0.0\nsamples = 7\nvalue = 1.0"] ;
826 -> 827 ;
828 [label="squared_error = 0.05\nsamples = 76\nvalue = 1.053"] ;
826 -> 828 ;
829 [label="X[14] <= 0.5\nsquared_error = 0.031\nsamples = 63\nvalue = 1.032"] ;
787 -> 829 ;
830 [label="squared_error = 0.0\nsamples = 5\nvalue = 1.0"] ;
829 -> 830 ;
831 [label="squared_error = 0.033\nsamples = 58\nvalue = 1.034"] ;
829 -> 831 ;
832 [label="squared_error = 0.438\nsamples = 8\nvalue = 1.25"] ;
786 -> 832 ;
833 [label="X[11] <= 0.5\nsquared_error = 0.212\nsamples = 968\nvalue = 1.108"] ;
677 -> 833 ;
834 [label="X[10] <= 0.5\nsquared_error = 0.21\nsamples = 953\nvalue = 1.106"] ;
833 -> 834 ;
835 [label="X[6] <= 0.5\nsquared_error = 0.21\nsamples = 946\nvalue = 1.105"] ;
834 -> 835 ;
836 [label="X[1] <= 25.0\nsquared_error = 0.214\nsamples = 929\nvalue = 1.107"] ;
835 -> 836 ;
837 [label="squared_error = 0.0\nsamples = 11\nvalue = 1.0"] ;
836 -> 837 ;
838 [label="X[9] <= 0.5\nsquared_error = 0.216\nsamples = 918\nvalue = 1.108"] ;
836 -> 838 ;
839 [label="X[5] <= 0.5\nsquared_error = 0.217\nsamples = 914\nvalue = 1.108"] ;
838 -> 839 ;
840 [label="X[3] <= 1.5\nsquared_error = 0.218\nsamples = 911\nvalue = 1.109"] ;
839 -> 840 ;
841 [label="X[8] <= 0.5\nsquared_error = 0.239\nsamples = 723\nvalue = 1.111"] ;
840 -> 841 ;
842 [label="X[4] <= 0.5\nsquared_error = 0.268\nsamples = 611\nvalue = 1.115"] ;
841 -> 842 ;
843 [label="X[7] <= 0.5\nsquared_error = 0.145\nsamples = 17\nvalue = 1.176"] ;
842 -> 843 ;
844 [label="squared_error = 0.24\nsamples = 5\nvalue = 1.4"] ;
843 -> 844 ;
845 [label="squared_error = 0.076\nsamples = 12\nvalue = 1.083"] ;
843 -> 845 ;
846 [label="squared_error = 0.272\nsamples = 594\nvalue = 1.113"] ;
842 -> 846 ;
847 [label="squared_error = 0.081\nsamples = 112\nvalue = 1.089"] ;
841 -> 847 ;
848 [label="X[4] <= 0.5\nsquared_error = 0.133\nsamples = 188\nvalue = 1.101"] ;
840 -> 848 ;
849 [label="X[7] <= 0.5\nsquared_error = 0.302\nsamples = 34\nvalue = 1.147"] ;
848 -> 849 ;
850 [label="X[8] <= 0.5\nsquared_error = 0.326\nsamples = 29\nvalue = 1.138"] ;
849 -> 850 ;
851 [label="squared_error = 0.0\nsamples = 1\nvalue = 1.0"] ;
850 -> 851 ;
852 [label="squared_error = 0.337\nsamples = 28\nvalue = 1.143"] ;
850 -> 852 ;
853 [label="squared_error = 0.16\nsamples = 5\nvalue = 1.2"] ;
849 -> 853 ;
854 [label="squared_error = 0.096\nsamples = 154\nvalue = 1.091"] ;
848 -> 854 ;
855 [label="squared_error = 0.0\nsamples = 3\nvalue = 1.0"] ;
839 -> 855 ;
856 [label="squared_error = 0.0\nsamples = 4\nvalue = 1.0"] ;
838 -> 856 ;
857 [label="squared_error = 0.0\nsamples = 17\nvalue = 1.0"] ;
835 -> 857 ;
858 [label="X[3] <= 1.5\nsquared_error = 0.204\nsamples = 7\nvalue = 1.286"] ;
834 -> 858 ;
859 [label="squared_error = 0.139\nsamples = 6\nvalue = 1.167"] ;
858 -> 859 ;
860 [label="squared_error = 0.0\nsamples = 1\nvalue = 2.0"] ;
858 -> 860 ;
861 [label="X[3] <= 1.5\nsquared_error = 0.329\nsamples = 15\nvalue = 1.267"] ;
833 -> 861 ;
862 [label="squared_error = 0.149\nsamples = 11\nvalue = 1.182"] ;
861 -> 862 ;
863 [label="squared_error = 0.75\nsamples = 4\nvalue = 1.5"] ;
861 -> 863 ;
864 [label="X[0] <= 2.5\nsquared_error = 0.519\nsamples = 28946\nvalue = 1.249"] ;
2 -> 864 ;
865 [label="X[20] <= 0.5\nsquared_error = 1.117\nsamples = 7066\nvalue = 1.348"] ;
864 -> 865 ;
866 [label="X[3] <= 1.5\nsquared_error = 0.817\nsamples = 2884\nvalue = 1.461"] ;
865 -> 866 ;
867 [label="X[13] <= 0.5\nsquared_error = 0.461\nsamples = 506\nvalue = 1.287"] ;
866 -> 867 ;
868 [label="X[0] <= 1.5\nsquared_error = 0.425\nsamples = 474\nvalue = 1.27"] ;
867 -> 868 ;
869 [label="X[18] <= 0.5\nsquared_error = 0.453\nsamples = 75\nvalue = 1.4"] ;
868 -> 869 ;
870 [label="X[1] <= 65.0\nsquared_error = 0.09\nsamples = 10\nvalue = 1.1"] ;
869 -> 870 ;
871 [label="squared_error = 0.0\nsamples = 4\nvalue = 1.0"] ;
870 -> 871 ;
872 [label="X[7] <= 0.5\nsquared_error = 0.139\nsamples = 6\nvalue = 1.167"] ;
870 -> 872 ;
873 [label="X[19] <= 0.5\nsquared_error = 0.16\nsamples = 5\nvalue = 1.2"] ;
872 -> 873 ;
874 [label="squared_error = 0.188\nsamples = 4\nvalue = 1.25"] ;
873 -> 874 ;
875 [label="squared_error = 0.0\nsamples = 1\nvalue = 1.0"] ;
873 -> 875 ;
876 [label="squared_error = 0.0\nsamples = 1\nvalue = 1.0"] ;
872 -> 876 ;
877 [label="X[4] <= 0.5\nsquared_error = 0.493\nsamples = 65\nvalue = 1.446"] ;
869 -> 877 ;
878 [label="X[1] <= 65.0\nsquared_error = 0.16\nsamples = 15\nvalue = 1.2"] ;
877 -> 878 ;
879 [label="X[14] <= 0.5\nsquared_error = 0.122\nsamples = 14\nvalue = 1.143"] ;
878 -> 879 ;
880 [label="X[1] <= 45.0\nsquared_error = 0.188\nsamples = 8\nvalue = 1.25"] ;
879 -> 880 ;
881 [label="X[8] <= 0.5\nsquared_error = 0.24\nsamples = 5\nvalue = 1.4"] ;
880 -> 881 ;
882 [label="squared_error = 0.0\nsamples = 1\nvalue = 1.0"] ;
881 -> 882 ;
883 [label="squared_error = 0.25\nsamples = 4\nvalue = 1.5"] ;
881 -> 883 ;
884 [label="squared_error = 0.0\nsamples = 3\nvalue = 1.0"] ;
880 -> 884 ;
885 [label="squared_error = 0.0\nsamples = 6\nvalue = 1.0"] ;
879 -> 885 ;
886 [label="squared_error = 0.0\nsamples = 1\nvalue = 2.0"] ;
878 -> 886 ;
887 [label="X[15] <= 0.5\nsquared_error = 0.57\nsamples = 50\nvalue = 1.52"] ;
877 -> 887 ;
888 [label="X[14] <= 0.5\nsquared_error = 0.582\nsamples = 48\nvalue = 1.542"] ;
887 -> 888 ;
889 [label="X[1] <= 45.0\nsquared_error = 0.57\nsamples = 37\nvalue = 1.568"] ;
888 -> 889 ;
890 [label="squared_error = 0.762\nsamples = 22\nvalue = 1.682"] ;
889 -> 890 ;
891 [label="X[1] <= 65.0\nsquared_error = 0.24\nsamples = 15\nvalue = 1.4"] ;
889 -> 891 ;
892 [label="X[1] <= 55.0\nsquared_error = 0.231\nsamples = 11\nvalue = 1.364"] ;
891 -> 892 ;
893 [label="squared_error = 0.24\nsamples = 10\nvalue = 1.4"] ;
892 -> 893 ;
894 [label="squared_error = 0.0\nsamples = 1\nvalue = 1.0"] ;
892 -> 894 ;
895 [label="squared_error = 0.25\nsamples = 4\nvalue = 1.5"] ;
891 -> 895 ;
896 [label="X[1] <= 50.0\nsquared_error = 0.612\nsamples = 11\nvalue = 1.455"] ;
888 -> 896 ;
897 [label="squared_error = 0.41\nsamples = 10\nvalue = 1.3"] ;
896 -> 897 ;
898 [label="squared_error = 0.0\nsamples = 1\nvalue = 3.0"] ;
896 -> 898 ;
899 [label="squared_error = 0.0\nsamples = 2\nvalue = 1.0"] ;
887 -> 899 ;
900 [label="X[1] <= 65.0\nsquared_error = 0.416\nsamples = 399\nvalue = 1.246"] ;
868 -> 900 ;
901 [label="X[14] <= 0.5\nsquared_error = 0.398\nsamples = 360\nvalue = 1.228"] ;
900 -> 901 ;
902 [label="X[1] <= 45.0\nsquared_error = 0.305\nsamples = 190\nvalue = 1.179"] ;
901 -> 902 ;
903 [label="X[8] <= 0.5\nsquared_error = 0.256\nsamples = 140\nvalue = 1.15"] ;
902 -> 903 ;
904 [label="X[4] <= 0.5\nsquared_error = 0.167\nsamples = 109\nvalue = 1.128"] ;
903 -> 904 ;
905 [label="squared_error = 0.0\nsamples = 4\nvalue = 1.0"] ;
904 -> 905 ;
906 [label="X[17] <= 0.5\nsquared_error = 0.173\nsamples = 105\nvalue = 1.133"] ;
904 -> 906 ;
907 [label="X[19] <= 0.5\nsquared_error = 0.177\nsamples = 102\nvalue = 1.137"] ;
906 -> 907 ;
908 [label="X[18] <= 0.5\nsquared_error = 0.182\nsamples = 99\nvalue = 1.141"] ;
907 -> 908 ;
909 [label="squared_error = 0.0\nsamples = 1\nvalue = 2.0"] ;
908 -> 909 ;
910 [label="X[15] <= 0.5\nsquared_error = 0.176\nsamples = 98\nvalue = 1.133"] ;
908 -> 910 ;
911 [label="squared_error = 0.178\nsamples = 97\nvalue = 1.134"] ;
910 -> 911 ;
912 [label="squared_error = 0.0\nsamples = 1\nvalue = 1.0"] ;
910 -> 912 ;
913 [label="squared_error = 0.0\nsamples = 3\nvalue = 1.0"] ;
907 -> 913 ;
914 [label="squared_error = 0.0\nsamples = 3\nvalue = 1.0"] ;
906 -> 914 ;
915 [label="X[15] <= 0.5\nsquared_error = 0.562\nsamples = 31\nvalue = 1.226"] ;
903 -> 915 ;
916 [label="squared_error = 0.579\nsamples = 30\nvalue = 1.233"] ;
915 -> 916 ;
917 [label="squared_error = 0.0\nsamples = 1\nvalue = 1.0"] ;
915 -> 917 ;
918 [label="X[15] <= 0.5\nsquared_error = 0.432\nsamples = 50\nvalue = 1.26"] ;
902 -> 918 ;
919 [label="X[7] <= 0.5\nsquared_error = 0.455\nsamples = 47\nvalue = 1.277"] ;
918 -> 919 ;
920 [label="X[18] <= 0.5\nsquared_error = 0.481\nsamples = 44\nvalue = 1.295"] ;
919 -> 920 ;
921 [label="X[8] <= 0.5\nsquared_error = 0.139\nsamples = 6\nvalue = 1.167"] ;
920 -> 921 ;
922 [label="X[17] <= 0.5\nsquared_error = 0.188\nsamples = 4\nvalue = 1.25"] ;
921 -> 922 ;
923 [label="squared_error = 0.222\nsamples = 3\nvalue = 1.333"] ;
922 -> 923 ;
924 [label="squared_error = 0.0\nsamples = 1\nvalue = 1.0"] ;
922 -> 924 ;
925 [label="squared_error = 0.0\nsamples = 2\nvalue = 1.0"] ;
921 -> 925 ;
926 [label="X[12] <= 0.5\nsquared_error = 0.532\nsamples = 38\nvalue = 1.316"] ;
920 -> 926 ;
927 [label="X[6] <= 0.5\nsquared_error = 0.543\nsamples = 37\nvalue = 1.324"] ;
926 -> 927 ;
928 [label="X[4] <= 0.5\nsquared_error = 0.556\nsamples = 36\nvalue = 1.333"] ;
927 -> 928 ;
929 [label="squared_error = 0.21\nsamples = 10\nvalue = 1.3"] ;
928 -> 929 ;
930 [label="X[1] <= 55.0\nsquared_error = 0.688\nsamples = 26\nvalue = 1.346"] ;
928 -> 930 ;
931 [label="squared_error = 0.749\nsamples = 23\nvalue = 1.348"] ;
930 -> 931 ;
932 [label="squared_error = 0.222\nsamples = 3\nvalue = 1.333"] ;
930 -> 932 ;
933 [label="squared_error = 0.0\nsamples = 1\nvalue = 1.0"] ;
927 -> 933 ;
934 [label="squared_error = 0.0\nsamples = 1\nvalue = 1.0"] ;
926 -> 934 ;
935 [label="squared_error = 0.0\nsamples = 3\nvalue = 1.0"] ;
919 -> 935 ;
936 [label="squared_error = 0.0\nsamples = 3\nvalue = 1.0"] ;
918 -> 936 ;
937 [label="X[1] <= 55.0\nsquared_error = 0.497\nsamples = 170\nvalue = 1.282"] ;
901 -> 937 ;
938 [label="X[18] <= 0.5\nsquared_error = 0.553\nsamples = 147\nvalue = 1.306"] ;
937 -> 938 ;
939 [label="X[1] <= 45.0\nsquared_error = 0.846\nsamples = 30\nvalue = 1.433"] ;
938 -> 939 ;
940 [label="X[7] <= 0.5\nsquared_error = 0.432\nsamples = 28\nvalue = 1.321"] ;
939 -> 940 ;
941 [label="X[17] <= 0.5\nsquared_error = 0.431\nsamples = 27\nvalue = 1.296"] ;
940 -> 941 ;
942 [label="X[19] <= 0.5\nsquared_error = 0.71\nsamples = 13\nvalue = 1.462"] ;
941 -> 942 ;
943 [label="X[4] <= 0.5\nsquared_error = 0.84\nsamples = 10\nvalue = 1.4"] ;
942 -> 943 ;
944 [label="squared_error = 0.222\nsamples = 3\nvalue = 1.333"] ;
943 -> 944 ;
945 [label="squared_error = 1.102\nsamples = 7\nvalue = 1.429"] ;
943 -> 945 ;
946 [label="X[4] <= 0.5\nsquared_error = 0.222\nsamples = 3\nvalue = 1.667"] ;
942 -> 946 ;
947 [label="squared_error = 0.0\nsamples = 1\nvalue = 2.0"] ;
946 -> 947 ;
948 [label="squared_error = 0.25\nsamples = 2\nvalue = 1.5"] ;
946 -> 948 ;
949 [label="X[8] <= 0.5\nsquared_error = 0.122\nsamples = 14\nvalue = 1.143"] ;
941 -> 949 ;
950 [label="X[4] <= 0.5\nsquared_error = 0.076\nsamples = 12\nvalue = 1.083"] ;
949 -> 950 ;
951 [label="squared_error = 0.0\nsamples = 2\nvalue = 1.0"] ;
950 -> 951 ;
952 [label="squared_error = 0.09\nsamples = 10\nvalue = 1.1"] ;
950 -> 952 ;
953 [label="squared_error = 0.25\nsamples = 2\nvalue = 1.5"] ;
949 -> 953 ;
954 [label="squared_error = 0.0\nsamples = 1\nvalue = 2.0"] ;
940 -> 954 ;
955 [label="X[17] <= 0.5\nsquared_error = 4.0\nsamples = 2\nvalue = 3.0"] ;
939 -> 955 ;
956 [label="squared_error = 0.0\nsamples = 1\nvalue = 5.0"] ;
955 -> 956 ;
957 [label="squared_error = 0.0\nsamples = 1\nvalue = 1.0"] ;
955 -> 957 ;
958 [label="X[4] <= 0.5\nsquared_error = 0.472\nsamples = 117\nvalue = 1.274"] ;
938 -> 958 ;
959 [label="X[1] <= 45.0\nsquared_error = 0.102\nsamples = 26\nvalue = 1.115"] ;
958 -> 959 ;
960 [label="X[6] <= 0.5\nsquared_error = 0.079\nsamples = 23\nvalue = 1.087"] ;
959 -> 960 ;
961 [label="X[8] <= 0.5\nsquared_error = 0.052\nsamples = 18\nvalue = 1.056"] ;
960 -> 961 ;
962 [label="squared_error = 0.0\nsamples = 6\nvalue = 1.0"] ;
961 -> 962 ;
963 [label="squared_error = 0.076\nsamples = 12\nvalue = 1.083"] ;
961 -> 963 ;
964 [label="squared_error = 0.16\nsamples = 5\nvalue = 1.2"] ;
960 -> 964 ;
965 [label="X[8] <= 0.5\nsquared_error = 0.222\nsamples = 3\nvalue = 1.333"] ;
959 -> 965 ;
966 [label="squared_error = 0.0\nsamples = 2\nvalue = 1.0"] ;
965 -> 966 ;
967 [label="squared_error = 0.0\nsamples = 1\nvalue = 2.0"] ;
965 -> 967 ;
968 [label="X[1] <= 45.0\nsquared_error = 0.569\nsamples = 91\nvalue = 1.319"] ;
958 -> 968 ;
969 [label="squared_error = 0.609\nsamples = 83\nvalue = 1.337"] ;
968 -> 969 ;
970 [label="squared_error = 0.109\nsamples = 8\nvalue = 1.125"] ;
968 -> 970 ;
971 [label="X[11] <= 0.5\nsquared_error = 0.113\nsamples = 23\nvalue = 1.13"] ;
937 -> 971 ;
972 [label="X[18] <= 0.5\nsquared_error = 0.083\nsamples = 22\nvalue = 1.091"] ;
971 -> 972 ;
973 [label="squared_error = 0.0\nsamples = 10\nvalue = 1.0"] ;
972 -> 973 ;
974 [label="X[4] <= 0.5\nsquared_error = 0.139\nsamples = 12\nvalue = 1.167"] ;
972 -> 974 ;
975 [label="squared_error = 0.0\nsamples = 4\nvalue = 1.0"] ;
974 -> 975 ;
976 [label="squared_error = 0.188\nsamples = 8\nvalue = 1.25"] ;
974 -> 976 ;
977 [label="squared_error = 0.0\nsamples = 1\nvalue = 2.0"] ;
971 -> 977 ;
978 [label="X[8] <= 0.5\nsquared_error = 0.55\nsamples = 39\nvalue = 1.41"] ;
900 -> 978 ;
979 [label="X[19] <= 0.5\nsquared_error = 0.183\nsamples = 29\nvalue = 1.241"] ;
978 -> 979 ;
980 [label="X[18] <= 0.5\nsquared_error = 0.192\nsamples = 27\nvalue = 1.259"] ;
979 -> 980 ;
981 [label="X[15] <= 0.5\nsquared_error = 0.234\nsamples = 8\nvalue = 1.375"] ;
980 -> 981 ;
982 [label="X[17] <= 0.5\nsquared_error = 0.204\nsamples = 7\nvalue = 1.286"] ;
981 -> 982 ;
983 [label="squared_error = 0.24\nsamples = 5\nvalue = 1.4"] ;
982 -> 983 ;
984 [label="squared_error = 0.0\nsamples = 2\nvalue = 1.0"] ;
982 -> 984 ;
985 [label="squared_error = 0.0\nsamples = 1\nvalue = 2.0"] ;
981 -> 985 ;
986 [label="X[4] <= 0.5\nsquared_error = 0.166\nsamples = 19\nvalue = 1.211"] ;
980 -> 986 ;
987 [label="squared_error = 0.0\nsamples = 2\nvalue = 1.0"] ;
986 -> 987 ;
988 [label="X[15] <= 0.5\nsquared_error = 0.18\nsamples = 17\nvalue = 1.235"] ;
986 -> 988 ;
989 [label="squared_error = 0.188\nsamples = 12\nvalue = 1.25"] ;
988 -> 989 ;
990 [label="squared_error = 0.16\nsamples = 5\nvalue = 1.2"] ;
988 -> 990 ;
991 [label="squared_error = 0.0\nsamples = 2\nvalue = 1.0"] ;
979 -> 991 ;
992 [label="X[15] <= 0.5\nsquared_error = 1.29\nsamples = 10\nvalue = 1.9"] ;
978 -> 992 ;
993 [label="X[18] <= 0.5\nsquared_error = 1.333\nsamples = 9\nvalue = 2.0"] ;
992 -> 993 ;
994 [label="squared_error = 0.0\nsamples = 2\nvalue = 2.0"] ;
993 -> 994 ;
995 [label="squared_error = 1.714\nsamples = 7\nvalue = 2.0"] ;
993 -> 995 ;
996 [label="squared_error = 0.0\nsamples = 1\nvalue = 1.0"] ;
992 -> 996 ;
997 [label="X[1] <= 45.0\nsquared_error = 0.937\nsamples = 32\nvalue = 1.531"] ;
867 -> 997 ;
998 [label="X[0] <= 1.5\nsquared_error = 1.083\nsamples = 26\nvalue = 1.615"] ;
997 -> 998 ;
999 [label="squared_error = 0.0\nsamples = 2\nvalue = 2.0"] ;
998 -> 999 ;
1000 [label="X[4] <= 0.5\nsquared_error = 1.16\nsamples = 24\nvalue = 1.583"] ;
998 -> 1000 ;
1001 [label="squared_error = 0.688\nsamples = 4\nvalue = 1.75"] ;
1000 -> 1001 ;
1002 [label="squared_error = 1.247\nsamples = 20\nvalue = 1.55"] ;
1000 -> 1002 ;
1003 [label="X[1] <= 55.0\nsquared_error = 0.139\nsamples = 6\nvalue = 1.167"] ;
997 -> 1003 ;
1004 [label="squared_error = 0.0\nsamples = 2\nvalue = 1.0"] ;
1003 -> 1004 ;
1005 [label="X[4] <= 0.5\nsquared_error = 0.188\nsamples = 4\nvalue = 1.25"] ;
1003 -> 1005 ;
1006 [label="squared_error = 0.0\nsamples = 2\nvalue = 1.0"] ;
1005 -> 1006 ;
1007 [label="X[1] <= 65.0\nsquared_error = 0.25\nsamples = 2\nvalue = 1.5"] ;
1005 -> 1007 ;
1008 [label="squared_error = 0.0\nsamples = 1\nvalue = 2.0"] ;
1007 -> 1008 ;
1009 [label="squared_error = 0.0\nsamples = 1\nvalue = 1.0"] ;
1007 -> 1009 ;
1010 [label="X[1] <= 55.0\nsquared_error = 0.885\nsamples = 2378\nvalue = 1.498"] ;
866 -> 1010 ;
1011 [label="X[17] <= 0.5\nsquared_error = 0.792\nsamples = 555\nvalue = 1.423"] ;
1010 -> 1011 ;
1012 [label="X[19] <= 0.5\nsquared_error = 0.734\nsamples = 533\nvalue = 1.411"] ;
1011 -> 1012 ;
1013 [label="X[5] <= 0.5\nsquared_error = 0.755\nsamples = 505\nvalue = 1.424"] ;
1012 -> 1013 ;
1014 [label="X[14] <= 0.5\nsquared_error = 0.747\nsamples = 496\nvalue = 1.417"] ;
1013 -> 1014 ;
1015 [label="X[8] <= 0.5\nsquared_error = 0.474\nsamples = 78\nvalue = 1.321"] ;
1014 -> 1015 ;
1016 [label="X[4] <= 0.5\nsquared_error = 0.378\nsamples = 65\nvalue = 1.262"] ;
1015 -> 1016 ;
1017 [label="squared_error = 0.0\nsamples = 8\nvalue = 1.0"] ;
1016 -> 1017 ;
1018 [label="X[12] <= 0.5\nsquared_error = 0.42\nsamples = 57\nvalue = 1.298"] ;
1016 -> 1018 ;
1019 [label="X[18] <= 0.5\nsquared_error = 0.418\nsamples = 56\nvalue = 1.286"] ;
1018 -> 1019 ;
1020 [label="X[0] <= 1.5\nsquared_error = 0.076\nsamples = 12\nvalue = 1.083"] ;
1019 -> 1020 ;
1021 [label="squared_error = 0.0\nsamples = 2\nvalue = 1.0"] ;
1020 -> 1021 ;
1022 [label="X[15] <= 0.5\nsquared_error = 0.09\nsamples = 10\nvalue = 1.1"] ;
1020 -> 1022 ;
1023 [label="X[1] <= 45.0\nsquared_error = 0.109\nsamples = 8\nvalue = 1.125"] ;
1022 -> 1023 ;
1024 [label="squared_error = 0.0\nsamples = 2\nvalue = 1.0"] ;
1023 -> 1024 ;
1025 [label="squared_error = 0.139\nsamples = 6\nvalue = 1.167"] ;
1023 -> 1025 ;
1026 [label="squared_error = 0.0\nsamples = 2\nvalue = 1.0"] ;
1022 -> 1026 ;
1027 [label="X[1] <= 45.0\nsquared_error = 0.497\nsamples = 44\nvalue = 1.341"] ;
1019 -> 1027 ;
1028 [label="X[0] <= 1.5\nsquared_error = 0.24\nsamples = 22\nvalue = 1.182"] ;
1027 -> 1028 ;
1029 [label="squared_error = 0.0\nsamples = 3\nvalue = 1.0"] ;
1028 -> 1029 ;
1030 [label="X[13] <= 0.5\nsquared_error = 0.271\nsamples = 19\nvalue = 1.211"] ;
1028 -> 1030 ;
1031 [label="squared_error = 0.188\nsamples = 8\nvalue = 1.25"] ;
1030 -> 1031 ;
1032 [label="squared_error = 0.331\nsamples = 11\nvalue = 1.182"] ;
1030 -> 1032 ;
1033 [label="X[13] <= 0.5\nsquared_error = 0.705\nsamples = 22\nvalue = 1.5"] ;
1027 -> 1033 ;
1034 [label="X[15] <= 0.5\nsquared_error = 0.83\nsamples = 17\nvalue = 1.588"] ;
1033 -> 1034 ;
1035 [label="X[0] <= 1.5\nsquared_error = 0.859\nsamples = 16\nvalue = 1.625"] ;
1034 -> 1035 ;
1036 [label="squared_error = 0.25\nsamples = 2\nvalue = 1.5"] ;
1035 -> 1036 ;
1037 [label="squared_error = 0.944\nsamples = 14\nvalue = 1.643"] ;
1035 -> 1037 ;
1038 [label="squared_error = 0.0\nsamples = 1\nvalue = 1.0"] ;
1034 -> 1038 ;
1039 [label="X[0] <= 1.5\nsquared_error = 0.16\nsamples = 5\nvalue = 1.2"] ;
1033 -> 1039 ;
1040 [label="squared_error = 0.0\nsamples = 1\nvalue = 2.0"] ;
1039 -> 1040 ;
1041 [label="squared_error = 0.0\nsamples = 4\nvalue = 1.0"] ;
1039 -> 1041 ;
1042 [label="squared_error = 0.0\nsamples = 1\nvalue = 2.0"] ;
1018 -> 1042 ;
1043 [label="X[18] <= 0.5\nsquared_error = 0.852\nsamples = 13\nvalue = 1.615"] ;
1015 -> 1043 ;
1044 [label="squared_error = 0.0\nsamples = 1\nvalue = 4.0"] ;
1043 -> 1044 ;
1045 [label="X[13] <= 0.5\nsquared_error = 0.41\nsamples = 12\nvalue = 1.417"] ;
1043 -> 1045 ;
1046 [label="X[1] <= 45.0\nsquared_error = 0.49\nsamples = 7\nvalue = 1.286"] ;
1045 -> 1046 ;
1047 [label="squared_error = 0.889\nsamples = 3\nvalue = 1.667"] ;
1046 -> 1047 ;
1048 [label="squared_error = 0.0\nsamples = 4\nvalue = 1.0"] ;
1046 -> 1048 ;
1049 [label="X[1] <= 45.0\nsquared_error = 0.24\nsamples = 5\nvalue = 1.6"] ;
1045 -> 1049 ;
1050 [label="squared_error = 0.222\nsamples = 3\nvalue = 1.333"] ;
1049 -> 1050 ;
1051 [label="squared_error = 0.0\nsamples = 2\nvalue = 2.0"] ;
1049 -> 1051 ;
1052 [label="X[4] <= 0.5\nsquared_error = 0.796\nsamples = 418\nvalue = 1.435"] ;
1014 -> 1052 ;
1053 [label="X[0] <= 1.5\nsquared_error = 0.685\nsamples = 105\nvalue = 1.352"] ;
1052 -> 1053 ;
1054 [label="X[1] <= 45.0\nsquared_error = 0.821\nsamples = 14\nvalue = 1.5"] ;
1053 -> 1054 ;
1055 [label="X[10] <= 0.5\nsquared_error = 0.444\nsamples = 9\nvalue = 1.333"] ;
1054 -> 1055 ;
1056 [label="X[18] <= 0.5\nsquared_error = 0.484\nsamples = 8\nvalue = 1.375"] ;
1055 -> 1056 ;
1057 [label="X[8] <= 0.5\nsquared_error = 0.49\nsamples = 7\nvalue = 1.286"] ;
1056 -> 1057 ;
1058 [label="squared_error = 0.0\nsamples = 2\nvalue = 1.0"] ;
1057 -> 1058 ;
1059 [label="squared_error = 0.64\nsamples = 5\nvalue = 1.4"] ;
1057 -> 1059 ;
1060 [label="squared_error = 0.0\nsamples = 1\nvalue = 2.0"] ;
1056 -> 1060 ;
1061 [label="squared_error = 0.0\nsamples = 1\nvalue = 1.0"] ;
1055 -> 1061 ;
1062 [label="X[8] <= 0.5\nsquared_error = 1.36\nsamples = 5\nvalue = 1.8"] ;
1054 -> 1062 ;
1063 [label="squared_error = 2.25\nsamples = 2\nvalue = 2.5"] ;
1062 -> 1063 ;
1064 [label="X[18] <= 0.5\nsquared_error = 0.222\nsamples = 3\nvalue = 1.333"] ;
1062 -> 1064 ;
1065 [label="squared_error = 0.25\nsamples = 2\nvalue = 1.5"] ;
1064 -> 1065 ;
1066 [label="squared_error = 0.0\nsamples = 1\nvalue = 1.0"] ;
1064 -> 1066 ;
1067 [label="X[9] <= 0.5\nsquared_error = 0.661\nsamples = 91\nvalue = 1.33"] ;
1053 -> 1067 ;
1068 [label="X[18] <= 0.5\nsquared_error = 0.673\nsamples = 89\nvalue = 1.337"] ;
1067 -> 1068 ;
1069 [label="X[11] <= 0.5\nsquared_error = 0.57\nsamples = 50\nvalue = 1.3"] ;
1068 -> 1069 ;
1070 [label="X[10] <= 0.5\nsquared_error = 0.58\nsamples = 49\nvalue = 1.306"] ;
1069 -> 1070 ;
1071 [label="X[1] <= 45.0\nsquared_error = 0.592\nsamples = 47\nvalue = 1.298"] ;
1070 -> 1071 ;
1072 [label="X[8] <= 0.5\nsquared_error = 0.533\nsamples = 17\nvalue = 1.235"] ;
1071 -> 1072 ;
1073 [label="X[6] <= 0.5\nsquared_error = 0.914\nsamples = 9\nvalue = 1.444"] ;
1072 -> 1073 ;
1074 [label="squared_error = 1.25\nsamples = 6\nvalue = 1.5"] ;
1073 -> 1074 ;
1075 [label="squared_error = 0.222\nsamples = 3\nvalue = 1.333"] ;
1073 -> 1075 ;
1076 [label="squared_error = 0.0\nsamples = 8\nvalue = 1.0"] ;
1072 -> 1076 ;
1077 [label="X[8] <= 0.5\nsquared_error = 0.622\nsamples = 30\nvalue = 1.333"] ;
1071 -> 1077 ;
1078 [label="X[7] <= 0.5\nsquared_error = 0.09\nsamples = 10\nvalue = 1.1"] ;
1077 -> 1078 ;
1079 [label="squared_error = 0.0\nsamples = 5\nvalue = 1.0"] ;
1078 -> 1079 ;
1080 [label="squared_error = 0.16\nsamples = 5\nvalue = 1.2"] ;
1078 -> 1080 ;
1081 [label="squared_error = 0.848\nsamples = 20\nvalue = 1.45"] ;
1077 -> 1081 ;
1082 [label="squared_error = 0.25\nsamples = 2\nvalue = 1.5"] ;
1070 -> 1082 ;
1083 [label="squared_error = 0.0\nsamples = 1\nvalue = 1.0"] ;
1069 -> 1083 ;
1084 [label="X[1] <= 45.0\nsquared_error = 0.801\nsamples = 39\nvalue = 1.385"] ;
1068 -> 1084 ;
1085 [label="X[8] <= 0.5\nsquared_error = 1.018\nsamples = 26\nvalue = 1.462"] ;
1084 -> 1085 ;
1086 [label="X[10] <= 0.5\nsquared_error = 1.854\nsamples = 12\nvalue = 1.75"] ;
1085 -> 1086 ;
1087 [label="X[6] <= 0.5\nsquared_error = 1.967\nsamples = 11\nvalue = 1.818"] ;
1086 -> 1087 ;
1088 [label="X[7] <= 0.5\nsquared_error = 2.359\nsamples = 8\nvalue = 1.875"] ;
1087 -> 1088 ;
1089 [label="squared_error = 2.0\nsamples = 3\nvalue = 2.0"] ;
1088 -> 1089 ;
1090 [label="squared_error = 2.56\nsamples = 5\nvalue = 1.8"] ;
1088 -> 1090 ;
1091 [label="squared_error = 0.889\nsamples = 3\nvalue = 1.667"] ;
1087 -> 1091 ;
1092 [label="squared_error = 0.0\nsamples = 1\nvalue = 1.0"] ;
1086 -> 1092 ;
1093 [label="squared_error = 0.168\nsamples = 14\nvalue = 1.214"] ;
1085 -> 1093 ;
1094 [label="X[8] <= 0.5\nsquared_error = 0.331\nsamples = 13\nvalue = 1.231"] ;
1084 -> 1094 ;
1095 [label="squared_error = 0.0\nsamples = 8\nvalue = 1.0"] ;
1094 -> 1095 ;
1096 [label="squared_error = 0.64\nsamples = 5\nvalue = 1.6"] ;
1094 -> 1096 ;
1097 [label="squared_error = 0.0\nsamples = 2\nvalue = 1.0"] ;
1067 -> 1097 ;
1098 [label="X[18] <= 0.5\nsquared_error = 0.83\nsamples = 313\nvalue = 1.463"] ;
1052 -> 1098 ;
1099 [label="X[0] <= 1.5\nsquared_error = 0.727\nsamples = 200\nvalue = 1.445"] ;
1098 -> 1099 ;
1100 [label="X[1] <= 45.0\nsquared_error = 0.16\nsamples = 30\nvalue = 1.2"] ;
1099 -> 1100 ;
1101 [label="squared_error = 0.13\nsamples = 13\nvalue = 1.154"] ;
1100 -> 1101 ;
1102 [label="squared_error = 0.18\nsamples = 17\nvalue = 1.235"] ;
1100 -> 1102 ;
1103 [label="X[1] <= 45.0\nsquared_error = 0.815\nsamples = 170\nvalue = 1.488"] ;
1099 -> 1103 ;
1104 [label="squared_error = 0.86\nsamples = 95\nvalue = 1.516"] ;
1103 -> 1104 ;
1105 [label="squared_error = 0.754\nsamples = 75\nvalue = 1.453"] ;
1103 -> 1105 ;
1106 [label="X[0] <= 1.5\nsquared_error = 1.011\nsamples = 113\nvalue = 1.496"] ;
1098 -> 1106 ;
1107 [label="X[1] <= 45.0\nsquared_error = 1.001\nsamples = 26\nvalue = 1.808"] ;
1106 -> 1107 ;
1108 [label="squared_error = 1.111\nsamples = 18\nvalue = 2.0"] ;
1107 -> 1108 ;
1109 [label="squared_error = 0.484\nsamples = 8\nvalue = 1.375"] ;
1107 -> 1109 ;
1110 [label="X[1] <= 45.0\nsquared_error = 0.976\nsamples = 87\nvalue = 1.402"] ;
1106 -> 1110 ;
1111 [label="squared_error = 0.663\nsamples = 64\nvalue = 1.344"] ;
1110 -> 1111 ;
1112 [label="squared_error = 1.811\nsamples = 23\nvalue = 1.565"] ;
1110 -> 1112 ;
1113 [label="X[1] <= 45.0\nsquared_error = 1.062\nsamples = 9\nvalue = 1.778"] ;
1013 -> 1113 ;
1114 [label="X[18] <= 0.5\nsquared_error = 1.109\nsamples = 8\nvalue = 1.875"] ;
1113 -> 1114 ;
1115 [label="squared_error = 1.688\nsamples = 4\nvalue = 2.25"] ;
1114 -> 1115 ;
1116 [label="X[13] <= 0.5\nsquared_error = 0.25\nsamples = 4\nvalue = 1.5"] ;
1114 -> 1116 ;
1117 [label="squared_error = 0.0\nsamples = 2\nvalue = 1.0"] ;
1116 -> 1117 ;
1118 [label="squared_error = 0.0\nsamples = 2\nvalue = 2.0"] ;
1116 -> 1118 ;
1119 [label="squared_error = 0.0\nsamples = 1\nvalue = 1.0"] ;
1113 -> 1119 ;
1120 [label="X[8] <= 0.5\nsquared_error = 0.29\nsamples = 28\nvalue = 1.179"] ;
1012 -> 1120 ;
1121 [label="X[1] <= 45.0\nsquared_error = 0.193\nsamples = 24\nvalue = 1.125"] ;
1120 -> 1121 ;
1122 [label="X[0] <= 1.5\nsquared_error = 0.059\nsamples = 16\nvalue = 1.062"] ;
1121 -> 1122 ;
1123 [label="squared_error = 0.0\nsamples = 3\nvalue = 1.0"] ;
1122 -> 1123 ;
1124 [label="squared_error = 0.071\nsamples = 13\nvalue = 1.077"] ;
1122 -> 1124 ;
1125 [label="X[14] <= 0.5\nsquared_error = 0.438\nsamples = 8\nvalue = 1.25"] ;
1121 -> 1125 ;
1126 [label="squared_error = 0.0\nsamples = 3\nvalue = 1.0"] ;
1125 -> 1126 ;
1127 [label="X[0] <= 1.5\nsquared_error = 0.64\nsamples = 5\nvalue = 1.4"] ;
1125 -> 1127 ;
1128 [label="squared_error = 0.0\nsamples = 1\nvalue = 1.0"] ;
1127 -> 1128 ;
1129 [label="squared_error = 0.75\nsamples = 4\nvalue = 1.5"] ;
1127 -> 1129 ;
1130 [label="X[0] <= 1.5\nsquared_error = 0.75\nsamples = 4\nvalue = 1.5"] ;
1120 -> 1130 ;
1131 [label="squared_error = 0.0\nsamples = 1\nvalue = 1.0"] ;
1130 -> 1131 ;
1132 [label="squared_error = 0.889\nsamples = 3\nvalue = 1.667"] ;
1130 -> 1132 ;
1133 [label="X[14] <= 0.5\nsquared_error = 2.107\nsamples = 22\nvalue = 1.727"] ;
1011 -> 1133 ;
1134 [label="squared_error = 0.0\nsamples = 3\nvalue = 1.0"] ;
1133 -> 1134 ;
1135 [label="X[4] <= 0.5\nsquared_error = 2.343\nsamples = 19\nvalue = 1.842"] ;
1133 -> 1135 ;
1136 [label="X[1] <= 45.0\nsquared_error = 0.64\nsamples = 5\nvalue = 1.4"] ;
1135 -> 1136 ;
1137 [label="squared_error = 1.0\nsamples = 2\nvalue = 2.0"] ;
1136 -> 1137 ;
1138 [label="squared_error = 0.0\nsamples = 3\nvalue = 1.0"] ;
1136 -> 1138 ;
1139 [label="X[0] <= 1.5\nsquared_error = 2.857\nsamples = 14\nvalue = 2.0"] ;
1135 -> 1139 ;
1140 [label="squared_error = 0.0\nsamples = 1\nvalue = 1.0"] ;
1139 -> 1140 ;
1141 [label="X[1] <= 45.0\nsquared_error = 2.994\nsamples = 13\nvalue = 2.077"] ;
1139 -> 1141 ;
1142 [label="squared_error = 3.551\nsamples = 7\nvalue = 2.143"] ;
1141 -> 1142 ;
1143 [label="squared_error = 2.333\nsamples = 6\nvalue = 2.0"] ;
1141 -> 1143 ;
1144 [label="X[10] <= 0.5\nsquared_error = 0.911\nsamples = 1823\nvalue = 1.521"] ;
1010 -> 1144 ;
1145 [label="X[18] <= 0.5\nsquared_error = 0.921\nsamples = 1795\nvalue = 1.526"] ;
1144 -> 1145 ;
1146 [label="X[9] <= 0.5\nsquared_error = 0.932\nsamples = 1539\nvalue = 1.539"] ;
1145 -> 1146 ;
1147 [label="X[14] <= 0.5\nsquared_error = 0.935\nsamples = 1533\nvalue = 1.541"] ;
1146 -> 1147 ;
1148 [label="X[5] <= 0.5\nsquared_error = 0.965\nsamples = 316\nvalue = 1.494"] ;
1147 -> 1148 ;
1149 [label="X[11] <= 0.5\nsquared_error = 0.964\nsamples = 308\nvalue = 1.477"] ;
1148 -> 1149 ;
1150 [label="X[15] <= 0.5\nsquared_error = 0.931\nsamples = 305\nvalue = 1.469"] ;
1149 -> 1150 ;
1151 [label="X[1] <= 65.0\nsquared_error = 0.933\nsamples = 292\nvalue = 1.459"] ;
1150 -> 1151 ;
1152 [label="X[19] <= 0.5\nsquared_error = 0.457\nsamples = 24\nvalue = 1.292"] ;
1151 -> 1152 ;
1153 [label="X[0] <= 1.5\nsquared_error = 0.09\nsamples = 20\nvalue = 1.1"] ;
1152 -> 1153 ;
1154 [label="squared_error = 0.0\nsamples = 5\nvalue = 1.0"] ;
1153 -> 1154 ;
1155 [label="X[13] <= 0.5\nsquared_error = 0.116\nsamples = 15\nvalue = 1.133"] ;
1153 -> 1155 ;
1156 [label="X[8] <= 0.5\nsquared_error = 0.139\nsamples = 12\nvalue = 1.167"] ;
1155 -> 1156 ;
1157 [label="X[6] <= 0.5\nsquared_error = 0.109\nsamples = 8\nvalue = 1.125"] ;
1156 -> 1157 ;
1158 [label="squared_error = 0.122\nsamples = 7\nvalue = 1.143"] ;
1157 -> 1158 ;
1159 [label="squared_error = 0.0\nsamples = 1\nvalue = 1.0"] ;
1157 -> 1159 ;
1160 [label="X[16] <= 0.5\nsquared_error = 0.188\nsamples = 4\nvalue = 1.25"] ;
1156 -> 1160 ;
1161 [label="squared_error = 0.222\nsamples = 3\nvalue = 1.333"] ;
1160 -> 1161 ;
1162 [label="squared_error = 0.0\nsamples = 1\nvalue = 1.0"] ;
1160 -> 1162 ;
1163 [label="squared_error = 0.0\nsamples = 3\nvalue = 1.0"] ;
1155 -> 1163 ;
1164 [label="X[13] <= 0.5\nsquared_error = 1.188\nsamples = 4\nvalue = 2.25"] ;
1152 -> 1164 ;
1165 [label="X[8] <= 0.5\nsquared_error = 0.25\nsamples = 2\nvalue = 1.5"] ;
1164 -> 1165 ;
